
/* Species #1 : (Size 48) (AF 0) (Age 5)  */


/* Organism #0 Fitness: 0.7996 Error: 0 */
/* ##------$ WINNER 0 SPECIES #1 $------## */
genomestart 0
trait 1 0 0 0 0 0 0 0 0 
node 1 1 1 3
node 2 1 1 1
node 3 1 0 2
node 4 1 0 2
node 5 1 0 2
gene 1 1 3 -3.1463 0 1 -3.1463 1
gene 1 1 4 -0.85963 0 2 -0.85963 1
gene 1 1 5 -0.463851 0 3 -0.463851 1
gene 1 2 3 2.40693 0 4 2.40693 1
gene 1 2 4 2.9932 0 5 2.9932 1
gene 1 2 5 1.61097 0 6 1.61097 1
gene 1 3 4 1.92457 0 9 1.92457 1
genomeend 0

/* Organism #1 Fitness: 0.7896 Error: 0 */
/* ##------$ WINNER 1 SPECIES #1 $------## */
genomestart 1
trait 1 0 0 0 0 0 0 0 0 
node 1 1 1 3
node 2 1 1 1
node 3 1 0 2
node 4 1 0 2
node 5 1 0 2
gene 1 1 3 -1.37569 0 1 -1.37569 1
gene 1 1 4 -0.895451 0 2 -0.895451 1
gene 1 1 5 2.26564 0 3 2.26564 1
gene 1 2 3 0.404416 0 4 0.404416 1
gene 1 2 4 2.04151 0 5 2.04151 1
gene 1 2 5 0.900346 0 6 0.900346 1
gene 1 3 4 1.92457 0 9 1.92457 1
genomeend 1

/* Organism #2 Fitness: 0.784 Error: 0 */
/* ##------$ WINNER 2 SPECIES #1 $------## */
genomestart 2
trait 1 0 0.477691 0 0 0 0.224494 0 0.727226 
node 1 1 1 3
node 2 1 1 1
node 3 1 0 2
node 4 1 0 2
node 5 1 0 2
gene 1 1 3 -2.75571 0 1 -2.75571 1
gene 1 1 4 -2.30699 0 2 -2.30699 1
gene 1 1 5 1.4182 0 3 1.4182 1
gene 1 2 3 -0.236137 0 4 -0.236137 1
gene 1 2 4 4.23235 0 5 4.23235 1
gene 1 2 5 2.03586 0 6 2.03586 1
genomeend 2

/* Organism #3 Fitness: 0.408225 Error: 0 */
genomestart 3
trait 1 0 0 0 0 0 0 0 0 
node 1 1 1 3
node 2 1 1 1
node 3 1 0 2
node 4 1 0 2
node 5 1 0 2
gene 1 1 3 0.130314 0 1 0.130314 1
gene 1 1 4 3.79086 0 2 3.79086 1
gene 1 1 5 0.253609 0 3 0.253609 1
gene 1 2 3 -1.89798 0 4 -1.89798 1
gene 1 2 4 1.58788 0 5 1.58788 1
gene 1 2 5 -0.773049 0 6 -0.773049 1
genomeend 3

/* Organism #4 Fitness: 0.79755 Error: 0 */
/* ##------$ WINNER 4 SPECIES #1 $------## */
genomestart 4
trait 1 0 0.15923 0 0 0 0.0748314 0 0.242409 
node 1 1 1 3
node 2 1 1 1
node 3 1 0 2
node 4 1 0 2
node 5 1 0 2
gene 1 1 3 -1.18039 0 1 -1.18039 1
gene 1 1 4 -1.61913 0 2 -1.61913 1
gene 1 1 5 2.29447 0 3 2.29447 1
gene 1 2 3 -0.917119 0 4 -0.917119 1
gene 1 2 4 2.66108 0 5 2.66108 1
gene 1 2 5 1.21919 0 6 1.21919 1
genomeend 4

/* Organism #5 Fitness: 0.7966 Error: 0 */
/* ##------$ WINNER 5 SPECIES #1 $------## */
genomestart 5
trait 1 0 0.318461 0 0 0 0.149663 0 0.484817 
node 1 1 1 3
node 2 1 1 1
node 3 1 0 2
node 4 1 0 2
node 5 1 0 2
gene 1 1 3 -3.95308 0 1 -3.95308 1
gene 1 1 4 2.79316 0 2 2.79316 1
gene 1 1 5 0.0708029 0 3 0.0708029 1
gene 1 2 3 0.209357 0 4 0.209357 1
gene 1 2 4 -0.404828 0 5 -0.404828 1
gene 1 2 5 0.637211 0 6 0.637211 1
genomeend 5

/* Organism #6 Fitness: 0.00664643 Error: 0 */
genomestart 6
trait 1 0 0.277261 0 0 0 0 0 0.118534 
node 1 1 1 3
node 2 1 1 1
node 3 1 0 2
node 4 1 0 2
node 5 1 0 2
gene 1 1 3 -2.38665 0 1 -2.38665 1
gene 1 1 4 1.36895 0 2 1.36895 1
gene 1 1 5 3.21754 0 3 3.21754 1
gene 1 2 3 0.909345 0 4 0.909345 1
gene 1 2 4 -2.1706 0 5 -2.1706 1
gene 1 2 5 3.37251 0 6 3.37251 1
genomeend 6

/* Organism #7 Fitness: 0.00485714 Error: 0 */
genomestart 7
trait 1 0 0 0 0 0 0.0644704 0 0 
node 1 1 1 3
node 2 1 1 1
node 3 1 0 2
node 4 1 0 2
node 5 1 0 2
gene 1 1 3 -0.196905 0 1 -0.196905 1
gene 1 1 4 5.08194 0 2 5.08194 1
gene 1 1 5 4.05783 0 3 4.05783 1
gene 1 2 3 0.464431 0 4 0.464431 1
gene 1 2 4 -0.518921 0 5 -0.518921 1
gene 1 2 5 2.53905 0 6 2.53905 1
genomeend 7

/* Organism #8 Fitness: 0.79155 Error: 0 */
/* ##------$ WINNER 8 SPECIES #1 $------## */
genomestart 8
trait 1 0 0 0.188635 0.254921 0 0 0 0.000152593 
node 1 1 1 3
node 2 1 1 1
node 3 1 0 2
node 4 1 0 2
node 5 1 0 2
gene 1 1 3 -4.5398 0 1 -4.5398 1
gene 1 1 4 1.34671 0 2 1.34671 1
gene 1 1 5 1.15009 0 3 1.15009 1
gene 1 2 3 -2.13575 0 4 -2.13575 1
gene 1 2 4 2.21374 0 5 2.21374 1
gene 1 2 5 -1.02886 0 6 -1.02886 1
genomeend 8

/* Organism #9 Fitness: 0.79875 Error: 0 */
/* ##------$ WINNER 9 SPECIES #1 $------## */
genomestart 9
trait 1 0 0 0.650044 0 0 0 0 0 
node 1 1 1 3
node 2 1 1 1
node 3 1 0 2
node 4 1 0 2
node 5 1 0 2
gene 1 1 3 0.0818659 0 1 0.0818659 1
gene 1 1 4 -0.85963 0 2 -0.85963 1
gene 1 1 5 2.6639 0 3 2.6639 1
gene 1 2 3 -4.04195 0 4 -4.04195 1
gene 1 2 4 2.81198 0 5 2.81198 1
gene 1 2 5 0.137837 0 6 0.137837 1
gene 1 3 4 -1.17023 0 9 -1.17023 1
genomeend 9

/* Organism #10 Fitness: 0.7974 Error: 0 */
/* ##------$ WINNER 10 SPECIES #1 $------## */
genomestart 10
trait 1 0 0 0 0 0 0 0 0 
node 1 1 1 3
node 2 1 1 1
node 3 1 0 2
node 4 1 0 2
node 5 1 0 2
gene 1 1 3 0.690023 0 1 0.690023 1
gene 1 1 4 -0.777913 0 2 -0.777913 1
gene 1 1 5 1.88097 0 3 1.88097 1
gene 1 2 3 -2.88493 0 4 -2.88493 1
gene 1 2 4 1.87758 0 5 1.87758 1
gene 1 2 5 1.93241 0 6 1.93241 1
genomeend 10

/* Organism #11 Fitness: 0.80145 Error: 0 */
/* ##------$ WINNER 11 SPECIES #1 $------## */
genomestart 11
trait 1 0 0 0 0 0 0 0 0 
node 1 1 1 3
node 2 1 1 1
node 3 1 0 2
node 4 1 0 2
node 5 1 0 2
gene 1 1 3 -2.50045 0 1 -2.50045 1
gene 1 1 4 -2.65815 0 2 -2.65815 1
gene 1 1 5 2.11736 0 3 2.11736 1
gene 1 2 3 2.2638 0 4 2.2638 1
gene 1 2 4 4.13722 0 5 4.13722 1
gene 1 2 5 1.94115 0 6 1.94115 1
gene 1 3 4 -0.228431 0 9 -0.228431 1
genomeend 11

/* Organism #12 Fitness: 0.8026 Error: 0 */
/* ##------$ WINNER 12 SPECIES #1 $------## */
genomestart 12
trait 1 0 0 0 0 0 0.0644704 0 0 
node 1 1 1 3
node 2 1 1 1
node 3 1 0 2
node 4 1 0 2
node 5 1 0 2
gene 1 1 3 -1.1896 0 1 -1.1896 1
gene 1 1 4 2.51152 0 2 2.51152 1
gene 1 1 5 3.11649 0 3 3.11649 1
gene 1 2 3 0.761666 0 4 0.761666 1
gene 1 2 4 -1.58925 0 5 -1.58925 1
gene 1 2 5 1.0421 0 6 1.0421 1
genomeend 12

/* Organism #13 Fitness: 0.79105 Error: 0 */
/* ##------$ WINNER 13 SPECIES #1 $------## */
genomestart 13
trait 1 0 0.318461 0 0 0 0.149663 0 0.484817 
node 1 1 1 3
node 2 1 1 1
node 3 1 0 2
node 4 1 0 2
node 5 1 0 2
gene 1 1 3 -2.75571 0 1 -2.75571 1
gene 1 1 4 -2.30699 0 2 -2.30699 1
gene 1 1 5 -0.406201 0 3 -0.406201 1
gene 1 2 3 -0.236137 0 4 -0.236137 1
gene 1 2 4 4.23235 0 5 4.23235 1
gene 1 2 5 2.24866 0 6 2.24866 1
genomeend 13

/* Organism #14 Fitness: 0.405625 Error: 0 */
genomestart 14
trait 1 0 0 0 0 0 0 0 0 
node 1 1 1 3
node 2 1 1 1
node 3 1 0 2
node 4 1 0 2
node 5 1 0 2
gene 1 1 3 -1.61037 0 1 -1.61037 1
gene 1 1 4 2.77627 0 2 2.77627 1
gene 1 1 5 0.253609 0 3 0.253609 1
gene 1 2 3 -0.33787 0 4 -0.33787 1
gene 1 2 4 2.21374 0 5 2.21374 1
gene 1 2 5 -1.02886 0 6 -1.02886 1
genomeend 14

/* Organism #15 Fitness: 0.80055 Error: 0 */
/* ##------$ WINNER 15 SPECIES #1 $------## */
genomestart 15
trait 1 0 0 0 0 0 0.0644704 0 0 
node 1 1 1 3
node 2 1 1 1
node 3 1 0 2
node 4 1 0 2
node 5 1 0 2
gene 1 1 3 -0.794244 0 1 -0.794244 1
gene 1 1 4 2.71477 0 2 2.71477 1
gene 1 1 5 2.80016 0 3 2.80016 1
gene 1 2 3 0.237297 0 4 0.237297 1
gene 1 2 4 0.208533 0 5 0.208533 1
gene 1 2 5 0.540376 0 6 0.540376 1
genomeend 15

/* Organism #16 Fitness: 0.7991 Error: 0 */
/* ##------$ WINNER 16 SPECIES #1 $------## */
genomestart 16
trait 1 0 0.15923 0 0 0 0.0748314 0 0.242409 
node 1 1 1 3
node 2 1 1 1
node 3 1 0 2
node 4 1 0 2
node 5 1 0 2
gene 1 1 3 -1.77498 0 1 -1.77498 1
gene 1 1 4 -1.11927 0 2 -1.11927 1
gene 1 1 5 1.19698 0 3 1.19698 1
gene 1 2 3 -0.287004 0 4 -0.287004 1
gene 1 2 4 2.22044 0 5 2.22044 1
gene 1 2 5 1.60778 0 6 1.60778 1
genomeend 16

/* Organism #17 Fitness: 0.00623572 Error: 0 */
genomestart 17
trait 1 0 0 0 0 0 0 0 0 
node 1 1 1 3
node 2 1 1 1
node 3 1 0 2
node 4 1 0 2
node 5 1 0 2
gene 1 1 3 -0.774712 0 1 -0.774712 1
gene 1 1 4 0.600681 0 2 0.600681 1
gene 1 1 5 0.656392 0 3 0.656392 1
gene 1 2 3 0.801538 0 4 0.801538 1
gene 1 2 4 1.20064 0 5 1.20064 1
gene 1 2 5 0.739372 0 6 0.739372 1
genomeend 17

/* Organism #18 Fitness: 0.80035 Error: 0 */
/* ##------$ WINNER 18 SPECIES #1 $------## */
genomestart 18
trait 1 0 0.15923 0 0 0 0.0748314 0 0.242409 
node 1 1 1 3
node 2 1 1 1
node 3 1 0 2
node 4 1 0 2
node 5 1 0 2
gene 1 1 3 -1.77498 0 1 -1.77498 1
gene 1 1 4 -1.46577 0 2 -1.46577 1
gene 1 1 5 0.593535 0 3 0.593535 1
gene 1 2 3 -0.287004 0 4 -0.287004 1
gene 1 2 4 2.51421 0 5 2.51421 1
gene 1 2 5 1.36401 0 6 1.36401 1
genomeend 18

/* Organism #19 Fitness: 0.7955 Error: 0 */
/* ##------$ WINNER 19 SPECIES #1 $------## */
genomestart 19
trait 1 0 0.318461 0 0 0 0.149663 0 0.484817 
node 1 1 1 3
node 2 1 1 1
node 3 1 0 2
node 4 1 0 2
node 5 1 0 2
gene 1 1 3 -3.85865 0 1 -3.85865 1
gene 1 1 4 0.25515 0 2 0.25515 1
gene 1 1 5 0.477172 0 3 0.477172 1
gene 1 2 3 1.25104 0 4 1.25104 1
gene 1 2 4 2.10258 0 5 2.10258 1
gene 1 2 5 1.82342 0 6 1.82342 1
gene 1 3 4 1.92457 0 9 1.92457 1
genomeend 19

/* Organism #20 Fitness: 0.00714286 Error: 0 */
genomestart 20
trait 1 0 0 0 0 0 0 0 0 
node 1 1 1 3
node 2 1 1 1
node 3 1 0 2
node 4 1 0 2
node 5 1 0 2
gene 1 1 3 -3.17544 0 1 -3.17544 1
gene 1 1 4 0.0458541 0 2 0.0458541 1
gene 1 1 5 -1.00421 0 3 -1.00421 1
gene 1 2 3 -0.33787 0 4 -0.33787 1
gene 1 2 4 -1.88661 0 5 -1.88661 1
gene 1 2 5 0.622715 0 6 0.622715 1
genomeend 20

/* Organism #21 Fitness: 0.7961 Error: 0 */
/* ##------$ WINNER 21 SPECIES #1 $------## */
genomestart 21
trait 1 0 0.318461 0 0 0 0.149663 0 0.484817 
node 1 1 1 3
node 2 1 1 1
node 3 1 0 2
node 4 1 0 2
node 5 1 0 2
gene 1 1 3 -2.90882 0 1 -2.90882 1
gene 1 1 4 -1.15023 0 2 -1.15023 1
gene 1 1 5 1.53455 0 3 1.53455 1
gene 1 2 3 -2.13575 0 4 -2.13575 1
gene 1 2 4 1.21197 0 5 1.21197 1
gene 1 2 5 -1.02886 0 6 -1.02886 1
genomeend 21

/* Organism #22 Fitness: 0.79595 Error: 0 */
/* ##------$ WINNER 22 SPECIES #1 $------## */
genomestart 22
trait 1 0 0.318461 0 0 0 0.149663 0 0.484817 
node 1 1 1 3
node 2 1 1 1
node 3 1 0 2
node 4 1 0 2
node 5 1 0 2
gene 1 1 3 -4.2559 0 1 -4.2559 1
gene 1 1 4 0.935347 0 2 0.935347 1
gene 1 1 5 -0.595798 0 3 -0.595798 1
gene 1 2 3 -2.53357 0 4 -2.53357 1
gene 1 2 4 -0.368358 0 5 -0.368358 1
gene 1 2 5 1.73006 0 6 1.73006 1
genomeend 22

/* Organism #23 Fitness: 0.00535714 Error: 0 */
genomestart 23
trait 1 0 0 0 0 0 0 0 0 
node 1 1 1 3
node 2 1 1 1
node 3 1 0 2
node 4 1 0 2
node 5 1 0 2
gene 1 1 3 -3.18003 0 1 -3.18003 1
gene 1 1 4 0.00244148 0 2 0.00244148 1
gene 1 1 5 0.0704978 0 3 0.0704978 1
gene 1 2 3 -1.57768 0 4 -1.57768 1
gene 1 2 4 -0.26764 0 5 -0.26764 1
gene 1 2 5 0.952483 0 6 0.952483 1
genomeend 23

/* Organism #24 Fitness: 0.3735 Error: 0 */
/* ##------$ WINNER 24 SPECIES #1 $------## */
genomestart 24
trait 1 0 0 0 0 0 0 0 0 
node 1 1 1 3
node 2 1 1 1
node 3 1 0 2
node 4 1 0 2
node 5 1 0 2
gene 1 1 3 -1.43978 0 1 -1.43978 1
gene 1 1 4 -0.218589 0 2 -0.218589 1
gene 1 1 5 4.77053 0 3 4.77053 1
gene 1 2 3 1.22724 0 4 1.22724 1
gene 1 2 4 0.0558908 0 5 0.0558908 1
gene 1 2 5 1.5861 0 6 1.5861 1
gene 1 3 4 3.96397 0 9 3.96397 1
genomeend 24

/* Organism #25 Fitness: 0.8006 Error: 0 */
/* ##------$ WINNER 25 SPECIES #1 $------## */
genomestart 25
trait 1 0 0 0 0 0 0.0644704 0 0 
node 1 1 1 3
node 2 1 1 1
node 3 1 0 2
node 4 1 0 2
node 5 1 0 2
gene 1 1 3 -0.180578 0 1 -0.180578 1
gene 1 1 4 3.35879 0 2 3.35879 1
gene 1 1 5 0.295244 0 3 0.295244 1
gene 1 2 3 -1.38481 0 4 -1.38481 1
gene 1 2 4 3.08687 0 5 3.08687 1
gene 1 2 5 1.97301 0 6 1.97301 1
gene 1 3 4 -3.66749 0 9 -3.66749 1
genomeend 25

/* Organism #26 Fitness: 0.80085 Error: 0 */
/* ##------$ WINNER 26 SPECIES #1 $------## */
genomestart 26
trait 1 0 0.15923 0 0 0 0.0748314 0 0.242409 
node 1 1 1 3
node 2 1 1 1
node 3 1 0 2
node 4 1 0 2
node 5 1 0 2
gene 1 1 3 -3.1463 0 1 -3.1463 1
gene 1 1 4 -0.85963 0 2 -0.85963 1
gene 1 1 5 -0.463851 0 3 -0.463851 1
gene 1 2 3 2.40693 0 4 2.40693 1
gene 1 2 4 4.23235 0 5 4.23235 1
gene 1 2 5 1.61097 0 6 1.61097 1
gene 1 3 4 1.92457 0 9 1.92457 1
genomeend 26

/* Organism #27 Fitness: 0.8014 Error: 0 */
/* ##------$ WINNER 27 SPECIES #1 $------## */
genomestart 27
trait 1 0 0.318461 0 0 0 0.149663 0 0.484817 
node 1 1 1 3
node 2 1 1 1
node 3 1 0 2
node 4 1 0 2
node 5 1 0 2
gene 1 1 3 -4.571 0 1 -4.571 1
gene 1 1 4 -0.85963 0 2 -0.85963 1
gene 1 1 5 1.4182 0 3 1.4182 1
gene 1 2 3 0.0951415 0 4 0.0951415 1
gene 1 2 4 2.9932 0 5 2.9932 1
gene 1 2 5 2.03586 0 6 2.03586 1
gene 1 3 4 1.92457 0 9 1.92457 1
genomeend 27

/* Organism #28 Fitness: 0.477493 Error: 0 */
genomestart 28
trait 1 0 0.15923 0 0 0 0.0748314 0 0.242409 
node 1 1 1 3
node 2 1 1 1
node 3 1 0 2
node 4 1 0 2
node 5 1 0 2
gene 1 1 3 1.21244 0 1 1.21244 1
gene 1 1 4 -3.50491 0 2 -3.50491 1
gene 1 1 5 0.021897 0 3 0.021897 1
gene 1 2 3 2.06984 0 4 2.06984 1
gene 1 2 4 0.796533 0 5 0.796533 1
gene 1 2 5 0.189718 0 6 0.189718 1
genomeend 28

/* Organism #29 Fitness: 0.00737143 Error: 0 */
genomestart 29
trait 1 0 0.477691 0 0 0 0.224494 0 0.727226 
node 1 1 1 3
node 2 1 1 1
node 3 1 0 2
node 4 1 0 2
node 5 1 0 2
gene 1 1 3 -4.571 0 1 -4.571 1
gene 1 1 4 -2.30699 0 2 -2.30699 1
gene 1 1 5 1.4182 0 3 1.4182 1
gene 1 2 3 -0.236137 0 4 -0.236137 1
gene 1 2 4 1.21197 0 5 1.21197 1
gene 1 2 5 2.24866 0 6 2.24866 1
genomeend 29

/* Organism #30 Fitness: 0.80035 Error: 0 */
/* ##------$ WINNER 30 SPECIES #1 $------## */
genomestart 30
trait 1 0 0 0 0 0 0 0 0 
node 1 1 1 3
node 2 1 1 1
node 3 1 0 2
node 4 1 0 2
node 5 1 0 2
gene 1 1 3 -0.604556 0 1 -0.604556 1
gene 1 1 4 3.93431 0 2 3.93431 1
gene 1 1 5 1.85163 0 3 1.85163 1
gene 1 2 3 0.0631466 0 4 0.0631466 1
gene 1 2 4 0.366756 0 5 0.366756 1
gene 1 2 5 1.82734 0 6 1.82734 1
genomeend 30

/* Organism #31 Fitness: 0.00455714 Error: 0 */
genomestart 31
trait 1 0 0 0 0 0 0 0 0 
node 1 1 1 3
node 2 1 1 1
node 3 1 0 2
node 4 1 0 2
node 5 1 0 2
gene 1 1 3 1.67796 0 1 1.67796 1
gene 1 1 4 1.75184 0 2 1.75184 1
gene 1 1 5 3.82512 0 3 3.82512 1
gene 1 2 3 0.888699 0 4 0.888699 1
gene 1 2 4 -1.69295 0 5 -1.69295 1
gene 1 2 5 0.578303 0 6 0.578303 1
genomeend 31

/* Organism #32 Fitness: 0.00704286 Error: 0 */
genomestart 32
trait 1 0 0 0 0 0 0 0 0 
node 1 1 1 3
node 2 1 1 1
node 3 1 0 2
node 4 1 0 2
node 5 1 0 2
gene 1 1 3 -0.438192 0 1 -0.438192 1
gene 1 1 4 -2.68332 0 2 -2.68332 1
gene 1 1 5 1.91259 0 3 1.91259 1
gene 1 2 3 -2.18198 0 4 -2.18198 1
gene 1 2 4 1.40828 0 5 1.40828 1
gene 1 2 5 0.555895 0 6 0.555895 1
genomeend 32

/* Organism #33 Fitness: 0.7935 Error: 0 */
/* ##------$ WINNER 33 SPECIES #1 $------## */
genomestart 33
trait 1 0 0.15923 0 0 0 0.0748314 0 0.242409 
node 1 1 1 3
node 2 1 1 1
node 3 1 0 2
node 4 1 0 2
node 5 1 0 2
gene 1 1 3 -2.26467 0 1 -2.26467 1
gene 1 1 4 -4.68102 0 2 -4.68102 1
gene 1 1 5 -2.1955 0 3 -2.1955 1
gene 1 2 3 -1.87986 0 4 -1.87986 1
gene 1 2 4 5.18162 0 5 5.18162 1
gene 1 2 5 3.06648 0 6 3.06648 1
genomeend 33

/* Organism #34 Fitness: 0.78945 Error: 0 */
/* ##------$ WINNER 34 SPECIES #1 $------## */
genomestart 34
trait 1 0 0 0 0 0 0 0 0 
node 1 1 1 3
node 2 1 1 1
node 3 1 0 2
node 4 1 0 2
node 5 1 0 2
gene 1 1 3 -4.56483 0 1 -4.56483 1
gene 1 1 4 0.906865 0 2 0.906865 1
gene 1 1 5 0.599689 0 3 0.599689 1
gene 1 2 3 -2.12167 0 4 -2.12167 1
gene 1 2 4 3.94345 0 5 3.94345 1
gene 1 2 5 0.108417 0 6 0.108417 1
genomeend 34

/* Organism #35 Fitness: 0.00664643 Error: 0 */
genomestart 35
trait 1 0 0 0 0 0 0 0 0 
node 1 1 1 3
node 2 1 1 1
node 3 1 0 2
node 4 1 0 2
node 5 1 0 2
gene 1 1 3 -0.010857 0 1 -0.010857 1
gene 1 1 4 2.11531 0 2 2.11531 1
gene 1 1 5 1.66021 0 3 1.66021 1
gene 1 2 3 0.760735 0 4 0.760735 1
gene 1 2 4 0.850993 0 5 0.850993 1
gene 1 2 5 -1.01675 0 6 -1.01675 1
genomeend 35

/* Organism #36 Fitness: 0.8002 Error: 0 */
/* ##------$ WINNER 36 SPECIES #1 $------## */
genomestart 36
trait 1 0 0.636921 0 0 0 0.299326 0 0.969634 
node 1 1 1 3
node 2 1 1 1
node 3 1 0 2
node 4 1 0 2
node 5 1 0 2
gene 1 1 3 -4.571 0 1 -4.571 1
gene 1 1 4 1.36993 0 2 1.36993 1
gene 1 1 5 1.4182 0 3 1.4182 1
gene 1 2 3 0.0951415 0 4 0.0951415 1
gene 1 2 4 1.21197 0 5 1.21197 1
gene 1 2 5 2.03586 0 6 2.03586 1
gene 1 3 5 -0.0367748 0 20 -0.0367748 1
genomeend 36

/* Organism #37 Fitness: 0.00662857 Error: 0 */
genomestart 37
trait 1 0 0 0 0 0 0 0 0 
node 1 1 1 3
node 2 1 1 1
node 3 1 0 2
node 4 1 0 2
node 5 1 0 2
gene 1 1 3 -1.05808 0 1 -1.05808 1
gene 1 1 4 -0.253441 0 2 -0.253441 1
gene 1 1 5 4.77984 0 3 4.77984 1
gene 1 2 3 -1.92323 0 4 -1.92323 1
gene 1 2 4 -1.26777 0 5 -1.26777 1
gene 1 2 5 3.34544 0 6 3.34544 1
genomeend 37

/* Organism #38 Fitness: 0.7992 Error: 0 */
/* ##------$ WINNER 38 SPECIES #1 $------## */
genomestart 38
trait 1 0 0.318461 0 0 0 0.149663 0 0.484817 
node 1 1 1 3
node 2 1 1 1
node 3 1 0 2
node 4 1 0 2
node 5 1 0 2
gene 1 1 3 -4.09618 0 1 -4.09618 1
gene 1 1 4 4.64469 0 2 4.64469 1
gene 1 1 5 3.66565 0 3 3.66565 1
gene 1 2 3 1.05274 0 4 1.05274 1
gene 1 2 4 1.82264 0 5 1.82264 1
gene 1 2 5 2.42016 0 6 2.42016 1
genomeend 38

/* Organism #39 Fitness: 0.79025 Error: 0 */
/* ##------$ WINNER 39 SPECIES #1 $------## */
genomestart 39
trait 1 0 0 0 0 0 0 0 0 
node 1 1 1 3
node 2 1 1 1
node 3 1 0 2
node 4 1 0 2
node 5 1 0 2
gene 1 1 3 -1.46507 0 1 -1.46507 1
gene 1 1 4 1.31378 0 2 1.31378 1
gene 1 1 5 0.805399 0 3 0.805399 1
gene 1 2 3 0.859432 0 4 0.859432 1
gene 1 2 4 1.53992 0 5 1.53992 1
gene 1 2 5 0.00242241 0 6 0.00242241 1
gene 1 3 4 1.57376 0 9 1.57376 1
genomeend 39

/* Organism #40 Fitness: 0.7644 Error: 0 */
/* ##------$ WINNER 40 SPECIES #1 $------## */
genomestart 40
trait 1 0 0.15923 0 0 0 0.0748314 0 0.242409 
node 1 1 1 3
node 2 1 1 1
node 3 1 0 2
node 4 1 0 2
node 5 1 0 2
gene 1 1 3 -0.794244 0 1 -0.794244 1
gene 1 1 4 -2.30699 0 2 -2.30699 1
gene 1 1 5 -0.406201 0 3 -0.406201 1
gene 1 2 3 -0.236137 0 4 -0.236137 1
gene 1 2 4 4.23235 0 5 4.23235 1
gene 1 2 5 0.479354 0 6 0.479354 1
gene 1 3 5 -0.0367748 0 20 0 1
genomeend 40

/* Organism #41 Fitness: 0.00871786 Error: 0 */
genomestart 41
trait 1 0 0 0 0 0 0.0644704 0 0 
node 1 1 1 3
node 2 1 1 1
node 3 1 0 2
node 4 1 0 2
node 5 1 0 2
gene 1 1 3 0.363491 0 1 0.363491 1
gene 1 1 4 0.230354 0 2 0.230354 1
gene 1 1 5 0.0106052 0 3 0.0106052 1
gene 1 2 3 1.89108 0 4 1.89108 1
gene 1 2 4 0.685064 0 5 0.685064 1
gene 1 2 5 0.612094 0 6 0.612094 1
genomeend 41

/* Organism #42 Fitness: 0.7852 Error: 0 */
/* ##------$ WINNER 42 SPECIES #1 $------## */
genomestart 42
trait 1 0 0.318461 0 0 0 0.149663 0 0.484817 
node 1 1 1 3
node 2 1 1 1
node 3 1 0 2
node 4 1 0 2
node 5 1 0 2
gene 1 1 3 -6.77055 0 1 -6.77055 1
gene 1 1 4 1.50037 0 2 1.50037 1
gene 1 1 5 3.78109 0 3 3.78109 1
gene 1 2 3 -0.878323 0 4 -0.878323 1
gene 1 2 4 1.21197 0 5 1.21197 1
gene 1 2 5 2.72568 0 6 2.72568 1
genomeend 42

/* Organism #43 Fitness: 0.0105143 Error: 0 */
genomestart 43
trait 1 0 0 0 0 0 0 0 0 
node 1 1 1 3
node 2 1 1 1
node 3 1 0 2
node 4 1 0 2
node 5 1 0 2
gene 1 1 3 -2.64008 0 1 -2.64008 1
gene 1 1 4 -0.442553 0 2 -0.442553 1
gene 1 1 5 2.14557 0 3 2.14557 1
gene 1 2 3 3.33074 0 4 3.33074 1
gene 1 2 4 3.32817 0 5 3.32817 1
gene 1 2 5 1.15297 0 6 1.15297 1
gene 1 3 4 4.31288 0 9 4.31288 1
genomeend 43

/* Organism #44 Fitness: 0.78395 Error: 0 */
/* ##------$ WINNER 44 SPECIES #1 $------## */
genomestart 44
trait 1 0 0.318461 0 0 0 0.214133 0 0.484817 
node 1 1 1 3
node 2 1 1 1
node 3 1 0 2
node 4 1 0 2
node 5 1 0 2
gene 1 1 3 -7.00584 0 1 -7.00584 1
gene 1 1 4 1.94441 0 2 1.94441 1
gene 1 1 5 5.16894 0 3 5.16894 1
gene 1 2 3 0.192892 0 4 0.192892 1
gene 1 2 4 1.36853 0 5 1.36853 1
gene 1 2 5 2.89824 0 6 2.89824 1
genomeend 44

/* Organism #45 Fitness: 0.00817857 Error: 0 */
genomestart 45
trait 1 0 0 0 0 0 0 0 0 
node 1 1 1 3
node 2 1 1 1
node 3 1 0 2
node 4 1 0 2
node 5 1 0 2
gene 1 1 3 -1.47038 0 1 -1.47038 1
gene 1 1 4 -0.790948 0 2 -0.790948 1
gene 1 1 5 2.80016 0 3 2.80016 1
gene 1 2 3 1.30166 0 4 1.30166 1
gene 1 2 4 0.208533 0 5 0.208533 1
gene 1 2 5 -0.9579 0 6 -0.9579 1
genomeend 45

/* Organism #46 Fitness: 0.394725 Error: 0 */
genomestart 46
trait 1 0 0 0 0 0 0 0 0 
node 1 1 1 3
node 2 1 1 1
node 3 1 0 2
node 4 1 0 2
node 5 1 0 2
gene 1 1 3 -2.52301 0 1 -2.52301 1
gene 1 1 4 -0.460482 0 2 -0.460482 1
gene 1 1 5 -1.22092 0 3 -1.22092 1
gene 1 2 3 -2.19808 0 4 -2.19808 1
gene 1 2 4 3.93507 0 5 3.93507 1
gene 1 2 5 -1.32856 0 6 -1.32856 1
gene 1 3 4 0.315943 0 9 0.315943 1
genomeend 46

/* Organism #47 Fitness: 0.00714286 Error: 0 */
genomestart 47
trait 1 0 0 0 0 0 0 0 0 
node 1 1 1 3
node 2 1 1 1
node 3 1 0 2
node 4 1 0 2
node 5 1 0 2
gene 1 1 3 -2.58692 0 1 -2.58692 1
gene 1 1 4 1.61336 0 2 1.61336 1
gene 1 1 5 -1.94487 0 3 -1.94487 1
gene 1 2 3 -0.272057 0 4 -0.272057 1
gene 1 2 4 -2.08371 0 5 -2.08371 1
gene 1 2 5 -0.65685 0 6 -0.65685 1
genomeend 47

/* Species #2 : (Size 1) (AF 0) (Age 1)  */


/* Organism #48 Fitness: 0.7832 Error: 0 */
/* ##------$ WINNER 48 SPECIES #2 $------## */
genomestart 48
trait 1 0 0 0 0 0 0.128941 0 0 
node 1 1 1 3
node 2 1 1 1
node 3 1 0 2
node 4 1 0 2
node 5 1 0 2
node 9 1 0 0
gene 1 1 3 -0.258934 0 1 -0.258934 1
gene 1 1 4 2.71477 0 2 2.71477 1
gene 1 1 5 3.36743 0 3 3.36743 1
gene 1 2 3 0.237297 0 4 0.237297 1
gene 1 2 4 2.31399 0 5 2.31399 0
gene 1 2 5 0.540376 0 6 0.540376 1
gene 1 3 4 -1.52951 0 9 -1.52951 1
gene 1 2 9 1 0 16 0 1
gene 1 9 4 2.31399 0 17 0 1
genomeend 48

/* Species #3 : (Size 1) (AF 0) (Age 1)  */


/* Organism #49 Fitness: 0.7812 Error: 0 */
/* ##------$ WINNER 49 SPECIES #3 $------## */
genomestart 49
trait 1 0 0 0 0 0 0 0 0 
node 1 1 1 3
node 2 1 1 1
node 3 1 0 2
node 4 1 0 2
node 5 1 0 2
node 10 1 0 0
gene 1 1 3 1.00062 0 1 1.00062 1
gene 1 1 4 1.84219 0 2 1.84219 1
gene 1 1 5 2.98809 0 3 2.98809 1
gene 1 2 3 -2.27335 0 4 -2.27335 1
gene 1 2 4 0.394646 0 5 0.394646 1
gene 1 2 5 2.39067 0 6 2.39067 0
gene 1 2 10 1 0 18 0 1
gene 1 10 5 2.39067 0 19 0 1
genomeend 49
