
/* Species #1 : (Size 50) (AF 0) (Age 2)  */


/* Organism #0 Fitness: 0.7626 Error: 0 */
/* ##------$ WINNER 0 SPECIES #1 $------## */
genomestart 0
trait 1 0 0 0 0 0 0 0 0 
node 1 1 1 3
node 2 1 1 1
node 3 1 0 2
node 4 1 0 2
node 5 1 0 2
gene 1 1 3 -0.940611 0 1 -0.940611 1
gene 1 1 4 0.772271 0 2 0.772271 1
gene 1 1 5 0.986114 0 3 0.986114 1
gene 1 2 3 0.628864 0 4 0.628864 1
gene 1 2 4 0.274331 0 5 0.274331 1
gene 1 2 5 -0.539811 0 6 -0.539811 1
genomeend 0

/* Organism #1 Fitness: 0.00714286 Error: 0 */
genomestart 1
trait 1 0 0 0 0 0 0 0 0 
node 1 1 1 3
node 2 1 1 1
node 3 1 0 2
node 4 1 0 2
node 5 1 0 2
gene 1 1 3 2.19642 0 1 2.19642 1
gene 1 1 4 1.67119 0 2 1.67119 1
gene 1 1 5 -0.633274 0 3 -0.633274 1
gene 1 2 3 1.20826 0 4 1.20826 1
gene 1 2 4 -0.937483 0 5 -0.937483 1
gene 1 2 5 0.544908 0 6 0.544908 1
genomeend 1

/* Organism #2 Fitness: 0.77265 Error: 0 */
/* ##------$ WINNER 2 SPECIES #1 $------## */
genomestart 2
trait 1 0 0 0 0 0 0 0 0 
node 1 1 1 3
node 2 1 1 1
node 3 1 0 2
node 4 1 0 2
node 5 1 0 2
gene 1 1 3 -0.81048 0 1 -0.81048 1
gene 1 1 4 -0.0425123 0 2 -0.0425123 1
gene 1 1 5 0.325892 0 3 0.325892 1
gene 1 2 3 -0.533662 0 4 -0.533662 1
gene 1 2 4 0.315149 0 5 0.315149 1
gene 1 2 5 0.479354 0 6 0.479354 1
genomeend 2

/* Organism #3 Fitness: 0.76685 Error: 0 */
/* ##------$ WINNER 3 SPECIES #1 $------## */
genomestart 3
trait 1 0 0 0 0 0 0 0 0 
node 1 1 1 3
node 2 1 1 1
node 3 1 0 2
node 4 1 0 2
node 5 1 0 2
node 6 1 0 0
gene 1 1 3 0.198401 0 1 0.198401 1
gene 1 1 4 -0.436506 0 2 -0.436506 1
gene 1 1 5 0.856777 0 3 0.856777 1
gene 1 2 3 -0.350566 0 4 -0.350566 1
gene 1 2 4 0.817438 0 5 0.817438 1
gene 1 2 5 0.668722 0 6 0.668722 0
gene 1 2 6 1 0 7 0 1
gene 1 6 5 0.668722 0 8 0 1
genomeend 3

/* Organism #4 Fitness: 0.7402 Error: 0 */
/* ##------$ WINNER 4 SPECIES #1 $------## */
genomestart 4
trait 1 0 0 0 0 0 0 0 0 
node 1 1 1 3
node 2 1 1 1
node 3 1 0 2
node 4 1 0 2
node 5 1 0 2
gene 1 1 3 -0.79342 0 1 -0.79342 1
gene 1 1 4 -0.436506 0 2 -0.436506 1
gene 1 1 5 0.696005 0 3 0.696005 1
gene 1 2 3 0.699332 0 4 0.699332 1
gene 1 2 4 0.817438 0 5 0.817438 1
gene 1 2 5 0.668722 0 6 0.668722 1
genomeend 4

/* Organism #5 Fitness: 0.00977143 Error: 0 */
genomestart 5
trait 1 0 0 0 0 0 0 0 0 
node 1 1 1 3
node 2 1 1 1
node 3 1 0 2
node 4 1 0 2
node 5 1 0 2
gene 1 1 3 -0.4682 0 1 -0.4682 1
gene 1 1 4 0.141606 0 2 0.141606 1
gene 1 1 5 0.120289 0 3 0.120289 1
gene 1 2 3 0.0291299 0 4 0.0291299 1
gene 1 2 4 -0.236305 0 5 -0.236305 1
gene 1 2 5 0.602298 0 6 0.602298 1
genomeend 5

/* Organism #6 Fitness: 0.78295 Error: 0 */
/* ##------$ WINNER 6 SPECIES #1 $------## */
genomestart 6
trait 1 0 0 0 0 0 0 0 0 
node 1 1 1 3
node 2 1 1 1
node 3 1 0 2
node 4 1 0 2
node 5 1 0 2
gene 1 1 3 -1.75051 0 1 -1.75051 1
gene 1 1 4 -0.0721763 0 2 -0.0721763 1
gene 1 1 5 2.23702 0 3 2.23702 1
gene 1 2 3 -0.721946 0 4 -0.721946 1
gene 1 2 4 1.82598 0 5 1.82598 1
gene 1 2 5 2.37912 0 6 2.37912 1
genomeend 6

/* Organism #7 Fitness: 0.471093 Error: 0 */
genomestart 7
trait 1 0 0 0 0 0 0 0 0 
node 1 1 1 3
node 2 1 1 1
node 3 1 0 2
node 4 1 0 2
node 5 1 0 2
gene 1 1 3 0.0684988 0 1 0.0684988 1
gene 1 1 4 -0.240715 0 2 -0.240715 1
gene 1 1 5 -0.0130314 0 3 -0.0130314 1
gene 1 2 3 2.4649 0 4 2.4649 1
gene 1 2 4 -0.643452 0 5 -0.643452 1
gene 1 2 5 2.13543 0 6 2.13543 1
genomeend 7

/* Organism #8 Fitness: 0.0100143 Error: 0 */
genomestart 8
trait 1 0 0 0 0 0 0 0 0 
node 1 1 1 3
node 2 1 1 1
node 3 1 0 2
node 4 1 0 2
node 5 1 0 2
gene 1 1 3 -0.0937834 0 1 -0.0937834 1
gene 1 1 4 -0.591556 0 2 -0.591556 1
gene 1 1 5 2.50555 0 3 2.50555 1
gene 1 2 3 1.12598 0 4 1.12598 1
gene 1 2 4 0.943342 0 5 0.943342 1
gene 1 2 5 1.36598 0 6 1.36598 1
genomeend 8

/* Organism #9 Fitness: 0.482793 Error: 0 */
genomestart 9
trait 1 0 0 0 0 0 0 0 0 
node 1 1 1 3
node 2 1 1 1
node 3 1 0 2
node 4 1 0 2
node 5 1 0 2
gene 1 1 3 1.67133 0 1 1.67133 1
gene 1 1 4 -0.887478 0 2 -0.887478 1
gene 1 1 5 1.37562 0 3 1.37562 1
gene 1 2 3 -0.128941 0 4 -0.128941 1
gene 1 2 4 -2.05667 0 5 -2.05667 1
gene 1 2 5 2.19398 0 6 2.19398 1
genomeend 9

/* Organism #10 Fitness: 0.00714286 Error: 0 */
genomestart 10
trait 1 0 0 0 0 0 0 0 0 
node 1 1 1 3
node 2 1 1 1
node 3 1 0 2
node 4 1 0 2
node 5 1 0 2
gene 1 1 3 -1.38429 0 1 -1.38429 1
gene 1 1 4 -1.54855 0 2 -1.54855 1
gene 1 1 5 -2.08084 0 3 -2.08084 1
gene 1 2 3 -0.192862 0 4 -0.192862 1
gene 1 2 4 -0.454405 0 5 -0.454405 1
gene 1 2 5 1.77187 0 6 1.77187 1
genomeend 10

/* Organism #11 Fitness: 0.00714286 Error: 0 */
genomestart 11
trait 1 0 0 0 0 0 0 0 0 
node 1 1 1 3
node 2 1 1 1
node 3 1 0 2
node 4 1 0 2
node 5 1 0 2
gene 1 1 3 -1.24111 0 1 -1.24111 1
gene 1 1 4 -1.1597 0 2 -1.1597 1
gene 1 1 5 -0.43199 0 3 -0.43199 1
gene 1 2 3 -0.743812 0 4 -0.743812 1
gene 1 2 4 -0.5253 0 5 -0.5253 1
gene 1 2 5 -0.609165 0 6 -0.609165 1
genomeend 11

/* Organism #12 Fitness: 0.79815 Error: 0 */
/* ##------$ WINNER 12 SPECIES #1 $------## */
genomestart 12
trait 1 0 0 0 0 0 0 0 0 
node 1 1 1 3
node 2 1 1 1
node 3 1 0 2
node 4 1 0 2
node 5 1 0 2
gene 1 1 3 0.198401 0 1 0.198401 1
gene 1 1 4 0.475875 0 2 0.475875 1
gene 1 1 5 0.856777 0 3 0.856777 1
gene 1 2 3 -0.350566 0 4 -0.350566 1
gene 1 2 4 0.817438 0 5 0.817438 1
gene 1 2 5 0.770745 0 6 0.770745 1
gene 1 3 4 -0.0936308 0 9 -0.0936308 1
genomeend 12

/* Organism #13 Fitness: 0.00728571 Error: 0 */
genomestart 13
trait 1 0 0 0.961272 0 0.80282 0 0.90228 0.976959 
node 1 1 1 3
node 2 1 1 1
node 3 1 0 2
node 4 1 0 2
node 5 1 0 2
gene 1 1 3 -0.22953 0 1 -0.22953 1
gene 1 1 4 0.986969 0 2 0.986969 1
gene 1 1 5 0.788736 0 3 0.788736 1
gene 1 2 3 1.34384 0 4 1.34384 1
gene 1 2 4 1.11962 0 5 1.11962 1
gene 1 2 5 1.86215 0 6 1.86215 1
genomeend 13

/* Organism #14 Fitness: 0.477743 Error: 0 */
genomestart 14
trait 1 0 0 0 0 0 0 0 0 
node 1 1 1 3
node 2 1 1 1
node 3 1 0 2
node 4 1 0 2
node 5 1 0 2
gene 1 1 3 -0.958419 0 1 -0.958419 1
gene 1 1 4 1.0428 0 2 1.0428 1
gene 1 1 5 1.35151 0 3 1.35151 1
gene 1 2 3 1.81867 0 4 1.81867 1
gene 1 2 4 -2.09357 0 5 -2.09357 1
gene 1 2 5 1.47778 0 6 1.47778 1
genomeend 14

/* Organism #15 Fitness: 0.473982 Error: 0 */
genomestart 15
trait 1 0 0 0 0 0 0 0 0 
node 1 1 1 3
node 2 1 1 1
node 3 1 0 2
node 4 1 0 2
node 5 1 0 2
gene 1 1 3 1.73125 0 1 1.73125 1
gene 1 1 4 -1.53546 0 2 -1.53546 1
gene 1 1 5 1.40355 0 3 1.40355 1
gene 1 2 3 -0.773263 0 4 -0.773263 1
gene 1 2 4 -0.260323 0 5 -0.260323 1
gene 1 2 5 -2.38849 0 6 -2.38849 1
genomeend 15

/* Organism #16 Fitness: 0.00643214 Error: 0 */
genomestart 16
trait 1 0 0 0 0 0 0 0 0 
node 1 1 1 3
node 2 1 1 1
node 3 1 0 2
node 4 1 0 2
node 5 1 0 2
gene 1 1 3 0.540544 0 1 0.540544 1
gene 1 1 4 0.650533 0 2 0.650533 1
gene 1 1 5 0.696005 0 3 0.696005 1
gene 1 2 3 0.699332 0 4 0.699332 1
gene 1 2 4 0.596332 0 5 0.596332 1
gene 1 2 5 0.147984 0 6 0.147984 1
genomeend 16

/* Organism #17 Fitness: 0.79315 Error: 0 */
/* ##------$ WINNER 17 SPECIES #1 $------## */
genomestart 17
trait 1 0 0 0 0 0 0 0 0 
node 1 1 1 3
node 2 1 1 1
node 3 1 0 2
node 4 1 0 2
node 5 1 0 2
gene 1 1 3 0.215842 0 1 0.215842 1
gene 1 1 4 0.345317 0 2 0.345317 1
gene 1 1 5 0.283761 0 3 0.283761 1
gene 1 2 3 -0.295907 0 4 -0.295907 1
gene 1 2 4 -0.110828 0 5 -0.110828 1
gene 1 2 5 0.504227 0 6 0.504227 1
genomeend 17

/* Organism #18 Fitness: 0.00349643 Error: 0 */
genomestart 18
trait 1 0 0 0 0 0 0 0 0 
node 1 1 1 3
node 2 1 1 1
node 3 1 0 2
node 4 1 0 2
node 5 1 0 2
node 7 1 0 0
gene 1 1 3 -0.220191 0 1 -0.220191 1
gene 1 1 4 0.650533 0 2 0.650533 1
gene 1 1 5 0.696005 0 3 0.696005 1
gene 1 2 3 0.699332 0 4 0.699332 0
gene 1 2 4 0.608783 0 5 0.608783 1
gene 1 2 5 0.147984 0 6 0.147984 1
gene 1 2 7 1 0 10 0 1
gene 1 7 3 0.699332 0 11 0 1
genomeend 18

/* Organism #19 Fitness: 0.396975 Error: 0 */
genomestart 19
trait 1 0 0 0 0 0 0 0 0 
node 1 1 1 3
node 2 1 1 1
node 3 1 0 2
node 4 1 0 2
node 5 1 0 2
gene 1 1 3 1.96205 0 1 1.96205 1
gene 1 1 4 2.9758 0 2 2.9758 1
gene 1 1 5 -0.234672 0 3 -0.234672 1
gene 1 2 3 -2.70142 0 4 -2.70142 1
gene 1 2 4 2.19355 0 5 2.19355 1
gene 1 2 5 -0.70719 0 6 -0.70719 1
genomeend 19

/* Organism #20 Fitness: 0.83075 Error: 0 */
/* ##------$ WINNER 20 SPECIES #1 $------## */
genomestart 20
trait 1 0 0 0 0 0 0 0 0 
node 1 1 1 3
node 2 1 1 1
node 3 1 0 2
node 4 1 0 2
node 5 1 0 2
gene 1 1 3 -0.794244 0 1 -0.794244 1
gene 1 1 4 0.068453 0 2 0.068453 1
gene 1 1 5 0.253609 0 3 0.253609 1
gene 1 2 3 -0.33787 0 4 -0.33787 1
gene 1 2 4 0.208533 0 5 0.208533 1
gene 1 2 5 0.966887 0 6 0.966887 1
genomeend 20

/* Organism #21 Fitness: 0.00771429 Error: 0 */
genomestart 21
trait 1 0 0 0 0 0 0 0 0 
node 1 1 1 3
node 2 1 1 1
node 3 1 0 2
node 4 1 0 2
node 5 1 0 2
gene 1 1 3 2.40341 0 1 2.40341 1
gene 1 1 4 1.87513 0 2 1.87513 1
gene 1 1 5 -1.04227 0 3 -1.04227 1
gene 1 2 3 -0.734657 0 4 -0.734657 1
gene 1 2 4 -1.70316 0 5 -1.70316 1
gene 1 2 5 1.18603 0 6 1.18603 1
genomeend 21

/* Organism #22 Fitness: 0.00956429 Error: 0 */
genomestart 22
trait 1 0 0 0 0 0 0 0 0 
node 1 1 1 3
node 2 1 1 1
node 3 1 0 2
node 4 1 0 2
node 5 1 0 2
gene 1 1 3 -0.385601 0 1 -0.385601 1
gene 1 1 4 -0.541246 0 2 -0.541246 1
gene 1 1 5 2.4387 0 3 2.4387 1
gene 1 2 3 -0.678518 0 4 -0.678518 1
gene 1 2 4 -0.664754 0 5 -0.664754 1
gene 1 2 5 1.85612 0 6 1.85612 1
genomeend 22

/* Organism #23 Fitness: 0.79805 Error: 0 */
/* ##------$ WINNER 23 SPECIES #1 $------## */
genomestart 23
trait 1 0 0 0 0 0 0 0 0 
node 1 1 1 3
node 2 1 1 1
node 3 1 0 2
node 4 1 0 2
node 5 1 0 2
gene 1 1 3 -0.732765 0 1 -0.732765 1
gene 1 1 4 0.708029 0 2 0.708029 1
gene 1 1 5 0.667318 0 3 0.667318 1
gene 1 2 3 0.0893887 0 4 0.0893887 1
gene 1 2 4 0.460234 0 5 0.460234 1
gene 1 2 5 0.00479141 0 6 0.00479141 1
genomeend 23

/* Organism #24 Fitness: 0.78125 Error: 0 */
/* ##------$ WINNER 24 SPECIES #1 $------## */
genomestart 24
trait 1 0 0 0 0 0 0 0 0 
node 1 1 1 3
node 2 1 1 1
node 3 1 0 2
node 4 1 0 2
node 5 1 0 2
gene 1 1 3 1.57439 0 1 1.57439 1
gene 1 1 4 1.64618 0 2 1.64618 1
gene 1 1 5 1.83403 0 3 1.83403 1
gene 1 2 3 -3.05611 0 4 -3.05611 1
gene 1 2 4 1.04605 0 5 1.04605 1
gene 1 2 5 -0.640736 0 6 -0.640736 1
genomeend 24

/* Organism #25 Fitness: 0.00882143 Error: 0 */
genomestart 25
trait 1 0 0 0 0 0 0 0 0 
node 1 1 1 3
node 2 1 1 1
node 3 1 0 2
node 4 1 0 2
node 5 1 0 2
gene 1 1 3 -0.778863 0 1 -0.778863 1
gene 1 1 4 -0.741218 0 2 -0.741218 1
gene 1 1 5 2.29925 0 3 2.29925 1
gene 1 2 3 0.35519 0 4 0.35519 1
gene 1 2 4 0.428678 0 5 0.428678 1
gene 1 2 5 0.122898 0 6 0.122898 1
genomeend 25

/* Organism #26 Fitness: 0.466082 Error: 0 */
genomestart 26
trait 1 0 0 0 0 0 0 0 0 
node 1 1 1 3
node 2 1 1 1
node 3 1 0 2
node 4 1 0 2
node 5 1 0 2
gene 1 1 3 -1.5509 0 1 -1.5509 1
gene 1 1 4 -2.30453 0 2 -2.30453 1
gene 1 1 5 0.648595 0 3 0.648595 1
gene 1 2 3 2.61142 0 4 2.61142 1
gene 1 2 4 -2.46811 0 5 -2.46811 1
gene 1 2 5 -1.30361 0 6 -1.30361 1
genomeend 26

/* Organism #27 Fitness: 0.82825 Error: 0 */
/* ##------$ WINNER 27 SPECIES #1 $------## */
genomestart 27
trait 1 0 0 0 0 0 0 0 0 
node 1 1 1 3
node 2 1 1 1
node 3 1 0 2
node 4 1 0 2
node 5 1 0 2
gene 1 1 3 0.57384 0 1 0.57384 1
gene 1 1 4 0.772271 0 2 0.772271 1
gene 1 1 5 0.580554 0 3 0.580554 1
gene 1 2 3 -0.987945 0 4 -0.987945 1
gene 1 2 4 0.274331 0 5 0.274331 1
gene 1 2 5 -0.539811 0 6 -0.539811 1
genomeend 27

/* Organism #28 Fitness: 0.81925 Error: 0 */
/* ##------$ WINNER 28 SPECIES #1 $------## */
genomestart 28
trait 1 0 0 0 0 0 0 0 0 
node 1 1 1 3
node 2 1 1 1
node 3 1 0 2
node 4 1 0 2
node 5 1 0 2
gene 1 1 3 0.176824 0 1 0.176824 1
gene 1 1 4 -0.0573138 0 2 -0.0573138 1
gene 1 1 5 0.425825 0 3 0.425825 1
gene 1 2 3 -0.53383 0 4 -0.53383 1
gene 1 2 4 0.534135 0 5 0.534135 1
gene 1 2 5 0.632176 0 6 0.632176 1
genomeend 28

/* Organism #29 Fitness: 0.00714286 Error: 0 */
genomestart 29
trait 1 0 0 0 0 0 0 0 0 
node 1 1 1 3
node 2 1 1 1
node 3 1 0 2
node 4 1 0 2
node 5 1 0 2
gene 1 1 3 -0.477859 0 1 -0.477859 1
gene 1 1 4 0.212256 0 2 0.212256 1
gene 1 1 5 0.320154 0 3 0.320154 1
gene 1 2 3 -0.902112 0 4 -0.902112 1
gene 1 2 4 -1.86085 0 5 -1.86085 1
gene 1 2 5 -1.64406 0 6 -1.64406 1
genomeend 29

/* Organism #30 Fitness: 0.479293 Error: 0 */
genomestart 30
trait 1 0 0 0.437819 0 0.713645 0 0 0 
node 1 1 1 3
node 2 1 1 1
node 3 1 0 2
node 4 1 0 2
node 5 1 0 2
gene 1 1 3 0.540544 0 1 0.540544 1
gene 1 1 4 -0.541246 0 2 -0.541246 1
gene 1 1 5 0.944823 0 3 0.944823 1
gene 1 2 3 -0.0397656 0 4 -0.0397656 1
gene 1 2 4 -0.329203 0 5 -0.329203 1
gene 1 2 5 -0.122471 0 6 -0.122471 1
genomeend 30

/* Organism #31 Fitness: 0.467982 Error: 0 */
genomestart 31
trait 1 0 0 0 0 0 0 0 0 
node 1 1 1 3
node 2 1 1 1
node 3 1 0 2
node 4 1 0 2
node 5 1 0 2
gene 1 1 3 1.39393 0 1 1.39393 1
gene 1 1 4 -1.1191 0 2 -1.1191 1
gene 1 1 5 0.258187 0 3 0.258187 1
gene 1 2 3 0.254112 0 4 0.254112 1
gene 1 2 4 0.541337 0 5 0.541337 1
gene 1 2 5 -0.914579 0 6 -0.914579 1
genomeend 31

/* Organism #32 Fitness: 0.00152143 Error: 0 */
genomestart 32
trait 1 0 0 0 0 0 0 0 0 
node 1 1 1 3
node 2 1 1 1
node 3 1 0 2
node 4 1 0 2
node 5 1 0 2
gene 1 1 3 2.64953 0 1 2.64953 1
gene 1 1 4 -1.06796 0 2 -1.06796 1
gene 1 1 5 0.121143 0 3 0.121143 1
gene 1 2 3 -1.63193 0 4 -1.63193 1
gene 1 2 4 2.64451 0 5 2.64451 1
gene 1 2 5 0.963103 0 6 0.963103 1
genomeend 32

/* Organism #33 Fitness: 0.00714286 Error: 0 */
genomestart 33
trait 1 0 0 0 0 0 0 0 0 
node 1 1 1 3
node 2 1 1 1
node 3 1 0 2
node 4 1 0 2
node 5 1 0 2
gene 1 1 3 -1.38371 0 1 -1.38371 1
gene 1 1 4 2.96846 0 2 2.96846 1
gene 1 1 5 -2.09516 0 3 -2.09516 1
gene 1 2 3 2.07472 0 4 2.07472 1
gene 1 2 4 2.3899 0 5 2.3899 1
gene 1 2 5 1.75657 0 6 1.75657 1
genomeend 33

/* Organism #34 Fitness: 0.00758929 Error: 0 */
genomestart 34
trait 1 0 0 0 0 0 0 0 0 
node 1 1 1 3
node 2 1 1 1
node 3 1 0 2
node 4 1 0 2
node 5 1 0 2
gene 1 1 3 0.185705 0 1 0.185705 1
gene 1 1 4 -0.99971 0 2 -0.99971 1
gene 1 1 5 0.825297 0 3 0.825297 1
gene 1 2 3 -0.657521 0 4 -0.657521 1
gene 1 2 4 -2.60231 0 5 -2.60231 1
gene 1 2 5 -0.643818 0 6 -0.643818 1
genomeend 34

/* Organism #35 Fitness: 0.00714286 Error: 0 */
genomestart 35
trait 1 0 0 0 0 0 0 0 0 
node 1 1 1 3
node 2 1 1 1
node 3 1 0 2
node 4 1 0 2
node 5 1 0 2
gene 1 1 3 1.53566 0 1 1.53566 1
gene 1 1 4 -1.49873 0 2 -1.49873 1
gene 1 1 5 -0.307489 0 3 -0.307489 1
gene 1 2 3 -2.55988 0 4 -2.55988 1
gene 1 2 4 0.363826 0 5 0.363826 1
gene 1 2 5 -0.263848 0 6 -0.263848 1
genomeend 35

/* Organism #36 Fitness: 0.8061 Error: 0 */
/* ##------$ WINNER 36 SPECIES #1 $------## */
genomestart 36
trait 1 0 0 0 0 0 0 0 0 
node 1 1 1 3
node 2 1 1 1
node 3 1 0 2
node 4 1 0 2
node 5 1 0 2
gene 1 1 3 0.621082 0 1 0.621082 1
gene 1 1 4 -1.80358 0 2 -1.80358 1
gene 1 1 5 3.20998 0 3 3.20998 1
gene 1 2 3 -0.735633 0 4 -0.735633 1
gene 1 2 4 2.95137 0 5 2.95137 1
gene 1 2 5 2.72536 0 6 2.72536 1
genomeend 36

/* Organism #37 Fitness: 0.8052 Error: 0 */
/* ##------$ WINNER 37 SPECIES #1 $------## */
genomestart 37
trait 1 0 0 0 0 0 0 0 0 
node 1 1 1 3
node 2 1 1 1
node 3 1 0 2
node 4 1 0 2
node 5 1 0 2
gene 1 1 3 -0.0427717 0 1 -0.0427717 1
gene 1 1 4 -1.31756 0 2 -1.31756 1
gene 1 1 5 2.93294 0 3 2.93294 1
gene 1 2 3 -0.17098 0 4 -0.17098 1
gene 1 2 4 1.38363 0 5 1.38363 1
gene 1 2 5 -0.00817896 0 6 -0.00817896 1
genomeend 37

/* Organism #38 Fitness: 0.481932 Error: 0 */
genomestart 38
trait 1 0 0 0 0 0 0 0 0 
node 1 1 1 3
node 2 1 1 1
node 3 1 0 2
node 4 1 0 2
node 5 1 0 2
gene 1 1 3 1.54102 0 1 1.54102 1
gene 1 1 4 -1.30364 0 2 -1.30364 1
gene 1 1 5 1.94172 0 3 1.94172 1
gene 1 2 3 1.94082 0 4 1.94082 1
gene 1 2 4 0.268639 0 5 0.268639 1
gene 1 2 5 -2.21273 0 6 -2.21273 1
genomeend 38

/* Organism #39 Fitness: 0.7672 Error: 0 */
/* ##------$ WINNER 39 SPECIES #1 $------## */
genomestart 39
trait 1 0 0 0 0 0 0 0 0 
node 1 1 1 3
node 2 1 1 1
node 3 1 0 2
node 4 1 0 2
node 5 1 0 2
gene 1 1 3 -1.50056 0 1 -1.50056 1
gene 1 1 4 -0.979369 0 2 -0.979369 1
gene 1 1 5 1.31489 0 3 1.31489 1
gene 1 2 3 -0.807825 0 4 -0.807825 1
gene 1 2 4 1.55812 0 5 1.55812 1
gene 1 2 5 2.07262 0 6 2.07262 1
genomeend 39

/* Organism #40 Fitness: 0.477043 Error: 0 */
genomestart 40
trait 1 0 0 0 0 0 0 0 0 
node 1 1 1 3
node 2 1 1 1
node 3 1 0 2
node 4 1 0 2
node 5 1 0 2
gene 1 1 3 0.399258 0 1 0.399258 1
gene 1 1 4 0.068453 0 2 0.068453 1
gene 1 1 5 0.253609 0 3 0.253609 1
gene 1 2 3 2.00755 0 4 2.00755 1
gene 1 2 4 -0.232627 0 5 -0.232627 1
gene 1 2 5 0.790643 0 6 0.790643 1
genomeend 40

/* Organism #41 Fitness: 0.8065 Error: 0 */
/* ##------$ WINNER 41 SPECIES #1 $------## */
genomestart 41
trait 1 0 0 0 0 0 0 0 0 
node 1 1 1 3
node 2 1 1 1
node 3 1 0 2
node 4 1 0 2
node 5 1 0 2
gene 1 1 3 -0.79342 0 1 -0.79342 1
gene 1 1 4 0.537736 0 2 0.537736 1
gene 1 1 5 0.696005 0 3 0.696005 1
gene 1 2 3 0.699332 0 4 0.699332 1
gene 1 2 4 0.596332 0 5 0.596332 1
gene 1 2 5 0.147984 0 6 0.147984 1
genomeend 41

/* Organism #42 Fitness: 0.00616429 Error: 0 */
genomestart 42
trait 1 0 0 0 0 0 0 0 0 
node 1 1 1 3
node 2 1 1 1
node 3 1 0 2
node 4 1 0 2
node 5 1 0 2
gene 1 1 3 0.585574 0 1 0.585574 1
gene 1 1 4 1.73666 0 2 1.73666 1
gene 1 1 5 0.896329 0 3 0.896329 1
gene 1 2 3 0.532136 0 4 0.532136 1
gene 1 2 4 0.220099 0 5 0.220099 1
gene 1 2 5 0.392315 0 6 0.392315 1
genomeend 42

/* Organism #43 Fitness: 0.78975 Error: 0 */
/* ##------$ WINNER 43 SPECIES #1 $------## */
genomestart 43
trait 1 0 0 0 0 0 0 0 0 
node 1 1 1 3
node 2 1 1 1
node 3 1 0 2
node 4 1 0 2
node 5 1 0 2
gene 1 1 3 -0.867016 0 1 -0.867016 1
gene 1 1 4 0.711402 0 2 0.711402 1
gene 1 1 5 0.84106 0 3 0.84106 1
gene 1 2 3 0.664098 0 4 0.664098 1
gene 1 2 4 0.435331 0 5 0.435331 1
gene 1 2 5 -0.195914 0 6 -0.195914 1
genomeend 43

/* Organism #44 Fitness: 0.482743 Error: 0 */
genomestart 44
trait 1 0 0 0 0 0 0 0 0 
node 1 1 1 3
node 2 1 1 1
node 3 1 0 2
node 4 1 0 2
node 5 1 0 2
gene 1 1 3 2.21133 0 1 2.21133 1
gene 1 1 4 -1.20229 0 2 -1.20229 1
gene 1 1 5 -0.422941 0 3 -0.422941 1
gene 1 2 3 -1.09873 0 4 -1.09873 1
gene 1 2 4 0.513245 0 5 0.513245 1
gene 1 2 5 2.8112 0 6 2.8112 1
genomeend 44

/* Organism #45 Fitness: 0.472993 Error: 0 */
genomestart 45
trait 1 0 0 0 0 0 0 0 0 
node 1 1 1 3
node 2 1 1 1
node 3 1 0 2
node 4 1 0 2
node 5 1 0 2
gene 1 1 3 1.38247 0 1 1.38247 1
gene 1 1 4 -0.577532 0 2 -0.577532 1
gene 1 1 5 1.05132 0 3 1.05132 1
gene 1 2 3 -1.12774 0 4 -1.12774 1
gene 1 2 4 -1.01756 0 5 -1.01756 1
gene 1 2 5 -0.113025 0 6 -0.113025 1
genomeend 45

/* Organism #46 Fitness: 0.80705 Error: 0 */
/* ##------$ WINNER 46 SPECIES #1 $------## */
genomestart 46
trait 1 0 0 0 0 0 0 0 0 
node 1 1 1 3
node 2 1 1 1
node 3 1 0 2
node 4 1 0 2
node 5 1 0 2
gene 1 1 3 -0.22689 0 1 -0.22689 1
gene 1 1 4 -0.587542 0 2 -0.587542 1
gene 1 1 5 0.484878 0 3 0.484878 1
gene 1 2 3 -2.26194 0 4 -2.26194 1
gene 1 2 4 1.59598 0 5 1.59598 1
gene 1 2 5 -0.200217 0 6 -0.200217 1
genomeend 46

/* Organism #47 Fitness: 0.7917 Error: 0 */
/* ##------$ WINNER 47 SPECIES #1 $------## */
genomestart 47
trait 1 0 0 0 0 0 0 0 0 
node 1 1 1 3
node 2 1 1 1
node 3 1 0 2
node 4 1 0 2
node 5 1 0 2
gene 1 1 3 -0.79342 0 1 -0.79342 1
gene 1 1 4 0.650533 0 2 0.650533 1
gene 1 1 5 0.561083 0 3 0.561083 1
gene 1 2 3 0.699332 0 4 0.699332 1
gene 1 2 4 0.596332 0 5 0.596332 1
gene 1 2 5 0.147984 0 6 0.147984 1
genomeend 47

/* Organism #48 Fitness: 0.00714286 Error: 0 */
genomestart 48
trait 1 0 0 0 0 0 0 0 0 
node 1 1 1 3
node 2 1 1 1
node 3 1 0 2
node 4 1 0 2
node 5 1 0 2
gene 1 1 3 1.17493 0 1 1.17493 1
gene 1 1 4 1.42692 0 2 1.42692 1
gene 1 1 5 0.986114 0 3 0.986114 1
gene 1 2 3 0.628864 0 4 0.628864 1
gene 1 2 4 -0.346004 0 5 -0.346004 1
gene 1 2 5 -2.06008 0 6 -2.06008 1
genomeend 48

/* Organism #49 Fitness: 0.7879 Error: 0 */
/* ##------$ WINNER 49 SPECIES #1 $------## */
genomestart 49
trait 1 0 0 0 0 0 0 0 0 
node 1 1 1 3
node 2 1 1 1
node 3 1 0 2
node 4 1 0 2
node 5 1 0 2
gene 1 1 3 -1.48639 0 1 -1.48639 1
gene 1 1 4 0.614811 0 2 0.614811 1
gene 1 1 5 1.03047 0 3 1.03047 1
gene 1 2 3 -0.418317 0 4 -0.418317 1
gene 1 2 4 0.799219 0 5 0.799219 1
gene 1 2 5 1.25233 0 6 1.25233 1
genomeend 49
