
/* Species #1 : (Size 50) (AF 0) (Age 3)  */


/* Organism #0 Fitness: 0.8134 Error: 0 */
/* ##------$ WINNER 0 SPECIES #1 $------## */
genomestart 0
trait 1 0 0 0 0 0 0 0 0 
node 1 1 1 3
node 2 1 1 1
node 3 1 0 2
node 4 1 0 2
node 5 1 0 2
gene 1 1 3 -0.794244 0 1 -0.794244 1
gene 1 1 4 0.068453 0 2 0.068453 1
gene 1 1 5 0.253609 0 3 0.253609 1
gene 1 2 3 -0.33787 0 4 -0.33787 1
gene 1 2 4 0.208533 0 5 0.208533 1
gene 1 2 5 0.966887 0 6 0.966887 1
genomeend 0

/* Organism #1 Fitness: 0.81745 Error: 0 */
/* ##------$ WINNER 1 SPECIES #1 $------## */
genomestart 1
trait 1 0 0 0 0 0 0 0 0 
node 1 1 1 3
node 2 1 1 1
node 3 1 0 2
node 4 1 0 2
node 5 1 0 2
gene 1 1 3 -2.38044 0 1 -2.38044 1
gene 1 1 4 -1.13627 0 2 -1.13627 1
gene 1 1 5 1.93214 0 3 1.93214 1
gene 1 2 3 -2.40645 0 4 -2.40645 1
gene 1 2 4 1.60276 0 5 1.60276 1
gene 1 2 5 2.96243 0 6 2.96243 1
genomeend 1

/* Organism #2 Fitness: 0.7933 Error: 0 */
/* ##------$ WINNER 2 SPECIES #1 $------## */
genomestart 2
trait 1 0 0 0 0 0 0 0 0 
node 1 1 1 3
node 2 1 1 1
node 3 1 0 2
node 4 1 0 2
node 5 1 0 2
gene 1 1 3 -0.308298 0 1 -0.308298 1
gene 1 1 4 0.240211 0 2 0.240211 1
gene 1 1 5 0.560915 0 3 0.560915 1
gene 1 2 3 0.0827509 0 4 0.0827509 1
gene 1 2 4 0.565233 0 5 0.565233 1
gene 1 2 5 0.39008 0 6 0.39008 1
genomeend 2

/* Organism #3 Fitness: 0.7798 Error: 0 */
/* ##------$ WINNER 3 SPECIES #1 $------## */
genomestart 3
trait 1 0 0 0 0 0 0 0 0 
node 1 1 1 3
node 2 1 1 1
node 3 1 0 2
node 4 1 0 2
node 5 1 0 2
gene 1 1 3 -1.29202 0 1 -1.29202 1
gene 1 1 4 1.05625 0 2 1.05625 1
gene 1 1 5 3.04646 0 3 3.04646 1
gene 1 2 3 0.676824 0 4 0.676824 1
gene 1 2 4 2.58377 0 5 2.58377 1
gene 1 2 5 -2.15906 0 6 -2.15906 1
genomeend 3

/* Organism #4 Fitness: 0.7855 Error: 0 */
/* ##------$ WINNER 4 SPECIES #1 $------## */
genomestart 4
trait 1 0 0 0 0 0 0 0 0 
node 1 1 1 3
node 2 1 1 1
node 3 1 0 2
node 4 1 0 2
node 5 1 0 2
gene 1 1 3 0.016892 0 1 0.016892 1
gene 1 1 4 -1.39271 0 2 -1.39271 1
gene 1 1 5 4.61718 0 3 4.61718 1
gene 1 2 3 -1.3316 0 4 -1.3316 1
gene 1 2 4 2.16048 0 5 2.16048 1
gene 1 2 5 2.23318 0 6 2.23318 1
genomeend 4

/* Organism #5 Fitness: 0.78625 Error: 0 */
/* ##------$ WINNER 5 SPECIES #1 $------## */
genomestart 5
trait 1 0 0 0 0 0 0 0 0 
node 1 1 1 3
node 2 1 1 1
node 3 1 0 2
node 4 1 0 2
node 5 1 0 2
gene 1 1 3 -0.79342 0 1 -0.79342 1
gene 1 1 4 0.650533 0 2 0.650533 1
gene 1 1 5 0.484878 0 3 0.484878 1
gene 1 2 3 0.699332 0 4 0.699332 1
gene 1 2 4 1.59598 0 5 1.59598 1
gene 1 2 5 0.147984 0 6 0.147984 1
genomeend 5

/* Organism #6 Fitness: 0.455182 Error: 0 */
genomestart 6
trait 1 0 0 0 0 0 0 0 0 
node 1 1 1 3
node 2 1 1 1
node 3 1 0 2
node 4 1 0 2
node 5 1 0 2
gene 1 1 3 2.57851 0 1 2.57851 1
gene 1 1 4 1.6496 0 2 1.6496 1
gene 1 1 5 -1.4564 0 3 -1.4564 1
gene 1 2 3 -0.295907 0 4 -0.295907 1
gene 1 2 4 -1.80399 0 5 -1.80399 1
gene 1 2 5 1.14084 0 6 1.14084 1
genomeend 6

/* Organism #7 Fitness: 0.00901071 Error: 0 */
genomestart 7
trait 1 0 0 0 0 0 0 0 0 
node 1 1 1 3
node 2 1 1 1
node 3 1 0 2
node 4 1 0 2
node 5 1 0 2
gene 1 1 3 -1.30151 0 1 -1.30151 1
gene 1 1 4 -3.30288 0 2 -3.30288 1
gene 1 1 5 5.46408 0 3 5.46408 1
gene 1 2 3 -1.46939 0 4 -1.46939 1
gene 1 2 4 0.123829 0 5 0.123829 1
gene 1 2 5 3.67724 0 6 3.67724 1
genomeend 7

/* Organism #8 Fitness: 0.00714286 Error: 0 */
genomestart 8
trait 1 0 0 0 0 0 0 0 0 
node 1 1 1 3
node 2 1 1 1
node 3 1 0 2
node 4 1 0 2
node 5 1 0 2
gene 1 1 3 -1.06297 0 1 -1.06297 1
gene 1 1 4 -1.88551 0 2 -1.88551 1
gene 1 1 5 -1.03928 0 3 -1.03928 1
gene 1 2 3 -0.106891 0 4 -0.106891 1
gene 1 2 4 -1.80013 0 5 -1.80013 1
gene 1 2 5 -0.281869 0 6 -0.281869 1
genomeend 8

/* Organism #9 Fitness: 0.00490714 Error: 0 */
genomestart 9
trait 1 0 0 0 0 0 0 0 0 
node 1 1 1 3
node 2 1 1 1
node 3 1 0 2
node 4 1 0 2
node 5 1 0 2
gene 1 1 3 2.1393 0 1 2.1393 1
gene 1 1 4 -0.791208 0 2 -0.791208 1
gene 1 1 5 5.13234 0 3 5.13234 1
gene 1 2 3 -0.0203558 0 4 -0.0203558 1
gene 1 2 4 1.19366 0 5 1.19366 1
gene 1 2 5 2.97882 0 6 2.97882 1
genomeend 9

/* Organism #10 Fitness: 0.00886429 Error: 0 */
genomestart 10
trait 1 0 0 0 0 0 0.449049 0 0.864376 
node 1 1 1 3
node 2 1 1 1
node 3 1 0 2
node 4 1 0 2
node 5 1 0 2
gene 1 1 3 1.89821 0 1 1.89821 1
gene 1 1 4 -1.80264 0 2 -1.80264 1
gene 1 1 5 1.65567 0 3 1.65567 1
gene 1 2 3 -2.44047 0 4 -2.44047 1
gene 1 2 4 0.817438 0 5 0.817438 1
gene 1 2 5 -0.936155 0 6 -0.936155 1
gene 1 3 4 -1.78977 0 9 -1.78977 1
genomeend 10

/* Organism #11 Fitness: 0.468243 Error: 0 */
genomestart 11
trait 1 0 0 0 0 0 0 0 0 
node 1 1 1 3
node 2 1 1 1
node 3 1 0 2
node 4 1 0 2
node 5 1 0 2
gene 1 1 3 0.34283 0 1 0.34283 1
gene 1 1 4 -1.36576 0 2 -1.36576 1
gene 1 1 5 0.293329 0 3 0.293329 1
gene 1 2 3 1.09647 0 4 1.09647 1
gene 1 2 4 -1.47252 0 5 -1.47252 1
gene 1 2 5 1.01115 0 6 1.01115 1
gene 1 3 4 -2.51146 0 9 -2.51146 1
genomeend 11

/* Organism #12 Fitness: 0.74875 Error: 0 */
/* ##------$ WINNER 12 SPECIES #1 $------## */
genomestart 12
trait 1 0 0 0 0 0 0 0 0 
node 1 1 1 3
node 2 1 1 1
node 3 1 0 2
node 4 1 0 2
node 5 1 0 2
gene 1 1 3 -0.79342 0 1 -0.79342 1
gene 1 1 4 0.537736 0 2 0.537736 1
gene 1 1 5 0.696005 0 3 0.696005 1
gene 1 2 3 0.699332 0 4 0.699332 1
gene 1 2 4 0.208533 0 5 0.208533 1
gene 1 2 5 0.147984 0 6 0.147984 1
genomeend 12

/* Organism #13 Fitness: 0.00926071 Error: 0 */
genomestart 13
trait 1 0 0 0 0 0 0 0 0 
node 1 1 1 3
node 2 1 1 1
node 3 1 0 2
node 4 1 0 2
node 5 1 0 2
gene 1 1 3 0.375332 0 1 0.375332 1
gene 1 1 4 1.5334 0 2 1.5334 1
gene 1 1 5 0.43199 0 3 0.43199 1
gene 1 2 3 0.752144 0 4 0.752144 1
gene 1 2 4 -0.0285958 0 5 -0.0285958 1
gene 1 2 5 1.74873 0 6 1.74873 1
genomeend 13

/* Organism #14 Fitness: 0.80065 Error: 0 */
/* ##------$ WINNER 14 SPECIES #1 $------## */
genomestart 14
trait 1 0 0 0 0 0 0 0 0 
node 1 1 1 3
node 2 1 1 1
node 3 1 0 2
node 4 1 0 2
node 5 1 0 2
gene 1 1 3 0.176824 0 1 0.176824 1
gene 1 1 4 -1.80358 0 2 -1.80358 1
gene 1 1 5 3.20998 0 3 3.20998 1
gene 1 2 3 -0.53383 0 4 -0.53383 1
gene 1 2 4 2.95137 0 5 2.95137 1
gene 1 2 5 0.632176 0 6 0.632176 1
genomeend 14

/* Organism #15 Fitness: 0.7841 Error: 0 */
/* ##------$ WINNER 15 SPECIES #1 $------## */
genomestart 15
trait 1 0 0 0 0 0 0 0 0 
node 1 1 1 3
node 2 1 1 1
node 3 1 0 2
node 4 1 0 2
node 5 1 0 2
gene 1 1 3 0.0778146 0 1 0.0778146 1
gene 1 1 4 -0.420843 0 2 -0.420843 1
gene 1 1 5 1.89486 0 3 1.89486 1
gene 1 2 3 -0.260773 0 4 -0.260773 1
gene 1 2 4 1.10054 0 5 1.10054 1
gene 1 2 5 0.381283 0 6 0.381283 1
genomeend 15

/* Organism #16 Fitness: 0.80995 Error: 0 */
/* ##------$ WINNER 16 SPECIES #1 $------## */
genomestart 16
trait 1 0 0 0 0 0 0 0 0 
node 1 1 1 3
node 2 1 1 1
node 3 1 0 2
node 4 1 0 2
node 5 1 0 2
gene 1 1 3 -0.418508 0 1 -0.418508 1
gene 1 1 4 -0.624554 0 2 -0.624554 1
gene 1 1 5 1.59327 0 3 1.59327 1
gene 1 2 3 -0.254425 0 4 -0.254425 1
gene 1 2 4 0.796083 0 5 0.796083 1
gene 1 2 5 0.479354 0 6 0.479354 1
genomeend 16

/* Organism #17 Fitness: 0.393325 Error: 0 */
genomestart 17
trait 1 0 0 0 0 0 0 0 0 
node 1 1 1 3
node 2 1 1 1
node 3 1 0 2
node 4 1 0 2
node 5 1 0 2
gene 1 1 3 -2.90087 0 1 -2.90087 1
gene 1 1 4 2.47586 0 2 2.47586 1
gene 1 1 5 -2.38357 0 3 -2.38357 1
gene 1 2 3 -1.56876 0 4 -1.56876 1
gene 1 2 4 0.627667 0 5 0.627667 1
gene 1 2 5 0.343852 0 6 0.343852 1
genomeend 17

/* Organism #18 Fitness: 0.00370714 Error: 0 */
genomestart 18
trait 1 0 0 0 0 0 0 0 0 
node 1 1 1 3
node 2 1 1 1
node 3 1 0 2
node 4 1 0 2
node 5 1 0 2
gene 1 1 3 1.35795 0 1 1.35795 1
gene 1 1 4 -1.5643 0 2 -1.5643 1
gene 1 1 5 1.06351 0 3 1.06351 1
gene 1 2 3 1.03226 0 4 1.03226 1
gene 1 2 4 1.87254 0 5 1.87254 1
gene 1 2 5 0.758522 0 6 0.758522 1
genomeend 18

/* Organism #19 Fitness: 0.8165 Error: 0 */
/* ##------$ WINNER 19 SPECIES #1 $------## */
genomestart 19
trait 1 0 0 0 0 0 0 0 0 
node 1 1 1 3
node 2 1 1 1
node 3 1 0 2
node 4 1 0 2
node 5 1 0 2
gene 1 1 3 -0.794244 0 1 -0.794244 1
gene 1 1 4 0.068453 0 2 0.068453 1
gene 1 1 5 0.253609 0 3 0.253609 1
gene 1 2 3 -0.33787 0 4 -0.33787 1
gene 1 2 4 0.208533 0 5 0.208533 1
gene 1 2 5 0.966887 0 6 0.966887 1
genomeend 19

/* Organism #20 Fitness: 0.00916429 Error: 0 */
genomestart 20
trait 1 0 0 0 0 0 0 0 0 
node 1 1 1 3
node 2 1 1 1
node 3 1 0 2
node 4 1 0 2
node 5 1 0 2
gene 1 1 3 -1.72893 0 1 -1.72893 1
gene 1 1 4 -2.99623 0 2 -2.99623 1
gene 1 1 5 3.78597 0 3 3.78597 1
gene 1 2 3 -0.852786 0 4 -0.852786 1
gene 1 2 4 0.690832 0 5 0.690832 1
gene 1 2 5 0.61932 0 6 0.61932 1
genomeend 20

/* Organism #21 Fitness: 0.00714286 Error: 0 */
genomestart 21
trait 1 0 0 0 0 0 0 0 0 
node 1 1 1 3
node 2 1 1 1
node 3 1 0 2
node 4 1 0 2
node 5 1 0 2
gene 1 1 3 -0.827555 0 1 -0.827555 1
gene 1 1 4 -3.447 0 2 -3.447 1
gene 1 1 5 0.835475 0 3 0.835475 1
gene 1 2 3 -2.64556 0 4 -2.64556 1
gene 1 2 4 2.11341 0 5 2.11341 1
gene 1 2 5 -2.01508 0 6 -2.01508 1
genomeend 21

/* Organism #22 Fitness: 0.7737 Error: 0 */
/* ##------$ WINNER 22 SPECIES #1 $------## */
genomestart 22
trait 1 0 0 0 0 0 0 0 0 
node 1 1 1 3
node 2 1 1 1
node 3 1 0 2
node 4 1 0 2
node 5 1 0 2
gene 1 1 3 2.23368 0 1 2.23368 1
gene 1 1 4 -1.35221 0 2 -1.35221 1
gene 1 1 5 4.34191 0 3 4.34191 1
gene 1 2 3 -2.86117 0 4 -2.86117 1
gene 1 2 4 4.76012 0 5 4.76012 1
gene 1 2 5 3.98791 0 6 3.98791 1
genomeend 22

/* Organism #23 Fitness: 0.00262143 Error: 0 */
genomestart 23
trait 1 0 0 0 0 0 0 0 0 
node 1 1 1 3
node 2 1 1 1
node 3 1 0 2
node 4 1 0 2
node 5 1 0 2
gene 1 1 3 -1.15665 0 1 -1.15665 1
gene 1 1 4 -0.831004 0 2 -0.831004 1
gene 1 1 5 0.441145 0 3 0.441145 1
gene 1 2 3 -0.109134 0 4 -0.109134 1
gene 1 2 4 -0.985458 0 5 -0.985458 1
gene 1 2 5 1.02208 0 6 1.02208 1
genomeend 23

/* Organism #24 Fitness: 0.403925 Error: 0 */
genomestart 24
trait 1 0 0 0 0 0 0 0 0 
node 1 1 1 3
node 2 1 1 1
node 3 1 0 2
node 4 1 0 2
node 5 1 0 2
gene 1 1 3 -1.50961 0 1 -1.50961 1
gene 1 1 4 -1.38279 0 2 -1.38279 1
gene 1 1 5 1.64328 0 3 1.64328 1
gene 1 2 3 -2.00726 0 4 -2.00726 1
gene 1 2 4 2.44465 0 5 2.44465 1
gene 1 2 5 -2.1943 0 6 -2.1943 1
genomeend 24

/* Organism #25 Fitness: 0.83205 Error: 0 */
/* ##------$ WINNER 25 SPECIES #1 $------## */
genomestart 25
trait 1 0 0 0 0 0 0 0 0 
node 1 1 1 3
node 2 1 1 1
node 3 1 0 2
node 4 1 0 2
node 5 1 0 2
gene 1 1 3 1.49619 0 1 1.49619 1
gene 1 1 4 0.0881222 0 2 0.0881222 1
gene 1 1 5 2.80016 0 3 2.80016 1
gene 1 2 3 -2.33503 0 4 -2.33503 1
gene 1 2 4 0.179952 0 5 0.179952 1
gene 1 2 5 -2.17759 0 6 -2.17759 1
genomeend 25

/* Organism #26 Fitness: 0.00336786 Error: 0 */
genomestart 26
trait 1 0 0 0 0 0.766106 0 0.291757 0.617298 
node 1 1 1 3
node 2 1 1 1
node 3 1 0 2
node 4 1 0 2
node 5 1 0 2
gene 1 1 3 1.91449 0 1 1.91449 1
gene 1 1 4 2.62922 0 2 2.62922 1
gene 1 1 5 2.14075 0 3 2.14075 1
gene 1 2 3 1.74079 0 4 1.74079 1
gene 1 2 4 -1.24401 0 5 -1.24401 1
gene 1 2 5 -1.9821 0 6 -1.9821 1
genomeend 26

/* Organism #27 Fitness: 0.486882 Error: 0 */
genomestart 27
trait 1 0 0 0 0 0 0 0 0 
node 1 1 1 3
node 2 1 1 1
node 3 1 0 2
node 4 1 0 2
node 5 1 0 2
gene 1 1 3 1.27258 0 1 1.27258 1
gene 1 1 4 -0.0641041 0 2 -0.0641041 1
gene 1 1 5 -2.24372 0 3 -2.24372 1
gene 1 2 3 2.38958 0 4 2.38958 1
gene 1 2 4 -1.71914 0 5 -1.71914 1
gene 1 2 5 -1.60297 0 6 -1.60297 1
genomeend 27

/* Organism #28 Fitness: 0.00714286 Error: 0 */
genomestart 28
trait 1 0 0 0 0 0 0 0 0 
node 1 1 1 3
node 2 1 1 1
node 3 1 0 2
node 4 1 0 2
node 5 1 0 2
gene 1 1 3 -0.410108 0 1 -0.410108 1
gene 1 1 4 2.51691 0 2 2.51691 1
gene 1 1 5 -1.45677 0 3 -1.45677 1
gene 1 2 3 0.917707 0 4 0.917707 1
gene 1 2 4 -0.703848 0 5 -0.703848 1
gene 1 2 5 0.115467 0 6 0.115467 1
genomeend 28

/* Organism #29 Fitness: 0.488143 Error: 0 */
genomestart 29
trait 1 0 0 0 0 0 0 0 0 
node 1 1 1 3
node 2 1 1 1
node 3 1 0 2
node 4 1 0 2
node 5 1 0 2
gene 1 1 3 -0.390881 0 1 -0.390881 1
gene 1 1 4 1.27148 0 2 1.27148 1
gene 1 1 5 2.39199 0 3 2.39199 1
gene 1 2 3 0.49971 0 4 0.49971 1
gene 1 2 4 -1.78997 0 5 -1.78997 1
gene 1 2 5 0.580828 0 6 0.580828 1
genomeend 29

/* Organism #30 Fitness: 0.00714286 Error: 0 */
genomestart 30
trait 1 0 0 0 0 0 0 0 0 
node 1 1 1 3
node 2 1 1 1
node 3 1 0 2
node 4 1 0 2
node 5 1 0 2
gene 1 1 3 1.3493 0 1 1.3493 1
gene 1 1 4 -0.456633 0 2 -0.456633 1
gene 1 1 5 -0.512986 0 3 -0.512986 1
gene 1 2 3 -0.792673 0 4 -0.792673 1
gene 1 2 4 2.83671 0 5 2.83671 1
gene 1 2 5 -1.57347 0 6 -1.57347 1
genomeend 30

/* Organism #31 Fitness: 0.00350714 Error: 0 */
genomestart 31
trait 1 0 0 0 0 0 0 0 0 
node 1 1 1 3
node 2 1 1 1
node 3 1 0 2
node 4 1 0 2
node 5 1 0 2
gene 1 1 3 0.0469222 0 1 0.0469222 1
gene 1 1 4 1.9937 0 2 1.9937 1
gene 1 1 5 0.635258 0 3 0.635258 1
gene 1 2 3 1.83599 0 4 1.83599 1
gene 1 2 4 -1.94975 0 5 -1.94975 1
gene 1 2 5 0.284204 0 6 0.284204 1
genomeend 31

/* Organism #32 Fitness: 0.83615 Error: 0 */
/* ##------$ WINNER 32 SPECIES #1 $------## */
genomestart 32
trait 1 0 0 0 0 0 0 0 0 
node 1 1 1 3
node 2 1 1 1
node 3 1 0 2
node 4 1 0 2
node 5 1 0 2
gene 1 1 3 -0.22689 0 1 -0.22689 1
gene 1 1 4 -0.587542 0 2 -0.587542 1
gene 1 1 5 0.484878 0 3 0.484878 1
gene 1 2 3 -2.26194 0 4 -2.26194 1
gene 1 2 4 1.59598 0 5 1.59598 1
gene 1 2 5 -0.200217 0 6 -0.200217 1
genomeend 32

/* Organism #33 Fitness: 0.0103643 Error: 0 */
genomestart 33
trait 1 0 0 0 0 0 0 0 0 
node 1 1 1 3
node 2 1 1 1
node 3 1 0 2
node 4 1 0 2
node 5 1 0 2
gene 1 1 3 1.0294 0 1 1.0294 1
gene 1 1 4 -1.37379 0 2 -1.37379 1
gene 1 1 5 -0.709998 0 3 -0.709998 1
gene 1 2 3 1.71934 0 4 1.71934 1
gene 1 2 4 1.59598 0 5 1.59598 1
gene 1 2 5 1.08866 0 6 1.08866 1
genomeend 33

/* Organism #34 Fitness: 0.00712857 Error: 0 */
genomestart 34
trait 1 0 0 0 0 0 0 0 0 
node 1 1 1 3
node 2 1 1 1
node 3 1 0 2
node 4 1 0 2
node 5 1 0 2
gene 1 1 3 0.198401 0 1 0.198401 1
gene 1 1 4 2.93475 0 2 2.93475 1
gene 1 1 5 0.0927458 0 3 0.0927458 1
gene 1 2 3 0.146458 0 4 0.146458 1
gene 1 2 4 1.22787 0 5 1.22787 1
gene 1 2 5 0.504227 0 6 0.504227 1
gene 1 3 4 0.297311 0 9 0.297311 1
genomeend 34

/* Organism #35 Fitness: 0.00406429 Error: 0 */
genomestart 35
trait 1 0 0 0 0 0 0 0 0 
node 1 1 1 3
node 2 1 1 1
node 3 1 0 2
node 4 1 0 2
node 5 1 0 2
gene 1 1 3 -1.08395 0 1 -1.08395 1
gene 1 1 4 -1.56057 0 2 -1.56057 1
gene 1 1 5 4.18645 0 3 4.18645 1
gene 1 2 3 -0.827921 0 4 -0.827921 1
gene 1 2 4 -1.04709 0 5 -1.04709 1
gene 1 2 5 3.76025 0 6 3.76025 1
genomeend 35

/* Organism #36 Fitness: 0.00714286 Error: 0 */
genomestart 36
trait 1 0 0 0 0 0 0 0 0 
node 1 1 1 3
node 2 1 1 1
node 3 1 0 2
node 4 1 0 2
node 5 1 0 2
gene 1 1 3 -0.00634785 0 1 -0.00634785 1
gene 1 1 4 -0.999786 0 2 -0.999786 1
gene 1 1 5 -1.53284 0 3 -1.53284 1
gene 1 2 3 1.11313 0 4 1.11313 1
gene 1 2 4 2.51245 0 5 2.51245 1
gene 1 2 5 -1.95991 0 6 -1.95991 1
genomeend 36

/* Organism #37 Fitness: 0.486993 Error: 0 */
genomestart 37
trait 1 0 0 0 0 0 0 0 0 
node 1 1 1 3
node 2 1 1 1
node 3 1 0 2
node 4 1 0 2
node 5 1 0 2
gene 1 1 3 1.2655 0 1 1.2655 1
gene 1 1 4 -2.20879 0 2 -2.20879 1
gene 1 1 5 0.816004 0 3 0.816004 1
gene 1 2 3 -1.19242 0 4 -1.19242 1
gene 1 2 4 -0.859111 0 5 -0.859111 1
gene 1 2 5 0.549547 0 6 0.549547 1
genomeend 37

/* Organism #38 Fitness: 0.83405 Error: 0 */
/* ##------$ WINNER 38 SPECIES #1 $------## */
genomestart 38
trait 1 0 0.636921 0 0 0 0.299326 0 0.969634 
node 1 1 1 3
node 2 1 1 1
node 3 1 0 2
node 4 1 0 2
node 5 1 0 2
gene 1 1 3 -2.3462 0 1 -2.3462 1
gene 1 1 4 1.14066 0 2 1.14066 1
gene 1 1 5 0.954543 0 3 0.954543 1
gene 1 2 3 1.01535 0 4 1.01535 1
gene 1 2 4 2.58797 0 5 2.58797 1
gene 1 2 5 1.5349 0 6 1.5349 1
genomeend 38

/* Organism #39 Fitness: 0.399275 Error: 0 */
genomestart 39
trait 1 0 0 0 0 0 0 0 0 
node 1 1 1 3
node 2 1 1 1
node 3 1 0 2
node 4 1 0 2
node 5 1 0 2
gene 1 1 3 -0.794244 0 1 -0.794244 1
gene 1 1 4 -0.526978 0 2 -0.526978 1
gene 1 1 5 0.561083 0 3 0.561083 1
gene 1 2 3 0.736641 0 4 0.736641 1
gene 1 2 4 2.04636 0 5 2.04636 1
gene 1 2 5 -0.761986 0 6 -0.761986 1
genomeend 39

/* Organism #40 Fitness: 0.8051 Error: 0 */
/* ##------$ WINNER 40 SPECIES #1 $------## */
genomestart 40
trait 1 0 0 0 0 0 0 0 0 
node 1 1 1 3
node 2 1 1 1
node 3 1 0 2
node 4 1 0 2
node 5 1 0 2
gene 1 1 3 -0.086169 0 1 -0.086169 1
gene 1 1 4 -0.632923 0 2 -0.632923 1
gene 1 1 5 1.95299 0 3 1.95299 1
gene 1 2 3 -0.0181509 0 4 -0.0181509 1
gene 1 2 4 1.77385 0 5 1.77385 1
gene 1 2 5 1.43667 0 6 1.43667 1
genomeend 40

/* Organism #41 Fitness: 0.7716 Error: 0 */
/* ##------$ WINNER 41 SPECIES #1 $------## */
genomestart 41
trait 1 0 0 0 0 0 0 0 0 
node 1 1 1 3
node 2 1 1 1
node 3 1 0 2
node 4 1 0 2
node 5 1 0 2
gene 1 1 3 -0.344264 0 1 -0.344264 1
gene 1 1 4 -0.795846 0 2 -0.795846 1
gene 1 1 5 2.56687 0 3 2.56687 1
gene 1 2 3 0.0569933 0 4 0.0569933 1
gene 1 2 4 2.51755 0 5 2.51755 1
gene 1 2 5 0.921628 0 6 0.921628 1
genomeend 41

/* Organism #42 Fitness: 0.7649 Error: 0 */
/* ##------$ WINNER 42 SPECIES #1 $------## */
genomestart 42
trait 1 0 0 0 0 0 0 0 0 
node 1 1 1 3
node 2 1 1 1
node 3 1 0 2
node 4 1 0 2
node 5 1 0 2
gene 1 1 3 -0.79342 0 1 -0.79342 1
gene 1 1 4 1.60642 0 2 1.60642 1
gene 1 1 5 2.89685 0 3 2.89685 1
gene 1 2 3 0.593204 0 4 0.593204 1
gene 1 2 4 0.380795 0 5 0.380795 1
gene 1 2 5 -0.518311 0 6 -0.518311 1
genomeend 42

/* Organism #43 Fitness: 0.480843 Error: 0 */
genomestart 43
trait 1 0.397473 0 0 0.175665 0.4944 0 0 0 
node 1 1 1 3
node 2 1 1 1
node 3 1 0 2
node 4 1 0 2
node 5 1 0 2
gene 1 1 3 2.27355 0 1 2.27355 1
gene 1 1 4 0.911283 0 2 0.911283 1
gene 1 1 5 1.55654 0 3 1.55654 1
gene 1 2 3 -0.382733 0 4 -0.382733 1
gene 1 2 4 -2.24812 0 5 -2.24812 1
gene 1 2 5 0.585559 0 6 0.585559 1
genomeend 43

/* Organism #44 Fitness: 0.00574643 Error: 0 */
genomestart 44
trait 1 0 0 0 0 0 0 0 0 
node 1 1 1 3
node 2 1 1 1
node 3 1 0 2
node 4 1 0 2
node 5 1 0 2
gene 1 1 3 1.12379 0 1 1.12379 1
gene 1 1 4 -1.26911 0 2 -1.26911 1
gene 1 1 5 1.34091 0 3 1.34091 1
gene 1 2 3 -2.65254 0 4 -2.65254 1
gene 1 2 4 0.992462 0 5 0.992462 1
gene 1 2 5 2.67894 0 6 2.67894 1
genomeend 44

/* Organism #45 Fitness: 0.80215 Error: 0 */
/* ##------$ WINNER 45 SPECIES #1 $------## */
genomestart 45
trait 1 0 0 0 0 0 0 0 0 
node 1 1 1 3
node 2 1 1 1
node 3 1 0 2
node 4 1 0 2
node 5 1 0 2
gene 1 1 3 -0.110202 0 1 -0.110202 1
gene 1 1 4 0.420362 0 2 0.420362 1
gene 1 1 5 0.417081 0 3 0.417081 1
gene 1 2 3 -0.662908 0 4 -0.662908 1
gene 1 2 4 0.241432 0 5 0.241432 1
gene 1 2 5 0.213538 0 6 0.213538 1
genomeend 45

/* Organism #46 Fitness: 0.8299 Error: 0 */
/* ##------$ WINNER 46 SPECIES #1 $------## */
genomestart 46
trait 1 0 0 0 0 0 0 0 0 
node 1 1 1 3
node 2 1 1 1
node 3 1 0 2
node 4 1 0 2
node 5 1 0 2
gene 1 1 3 -1.61037 0 1 -1.61037 1
gene 1 1 4 2.77627 0 2 2.77627 1
gene 1 1 5 2.11899 0 3 2.11899 1
gene 1 2 3 -1.7503 0 4 -1.7503 1
gene 1 2 4 0.307901 0 5 0.307901 1
gene 1 2 5 0.291284 0 6 0.291284 1
genomeend 46

/* Organism #47 Fitness: 0.82385 Error: 0 */
/* ##------$ WINNER 47 SPECIES #1 $------## */
genomestart 47
trait 1 0 0 0 0 0 0 0 0 
node 1 1 1 3
node 2 1 1 1
node 3 1 0 2
node 4 1 0 2
node 5 1 0 2
gene 1 1 3 -1.21877 0 1 -1.21877 1
gene 1 1 4 -1.81051 0 2 -1.81051 1
gene 1 1 5 3.00877 0 3 3.00877 1
gene 1 2 3 0.699332 0 4 0.699332 1
gene 1 2 4 1.92915 0 5 1.92915 1
gene 1 2 5 -1.71418 0 6 -1.71418 1
genomeend 47

/* Organism #48 Fitness: 0.433525 Error: 0 */
genomestart 48
trait 1 0 0 0 0 0 0 0 0 
node 1 1 1 3
node 2 1 1 1
node 3 1 0 2
node 4 1 0 2
node 5 1 0 2
gene 1 1 3 -1.03679 0 1 -1.03679 1
gene 1 1 4 1.28196 0 2 1.28196 1
gene 1 1 5 0.605899 0 3 0.605899 1
gene 1 2 3 -2.01201 0 4 -2.01201 1
gene 1 2 4 2.74155 0 5 2.74155 1
gene 1 2 5 -2.31491 0 6 -2.31491 1
genomeend 48

/* Organism #49 Fitness: 0.83465 Error: 0 */
/* ##------$ WINNER 49 SPECIES #1 $------## */
genomestart 49
trait 1 0 0 0 0 0 0 0 0 
node 1 1 1 3
node 2 1 1 1
node 3 1 0 2
node 4 1 0 2
node 5 1 0 2
gene 1 1 3 -2.17605 0 1 -2.17605 1
gene 1 1 4 0.665029 0 2 0.665029 1
gene 1 1 5 1.23582 0 3 1.23582 1
gene 1 2 3 1.8576 0 4 1.8576 1
gene 1 2 4 1.0052 0 5 1.0052 1
gene 1 2 5 0.147984 0 6 0.147984 1
gene 1 3 4 0.634327 0 9 0.634327 1
genomeend 49
